tree
version=v4
num_class=5
num_tree_per_iteration=5
label_index=0
max_feature_idx=45
objective=multiclass num_class:5
feature_names=site_id triage_nurse_id arrival_mode age age_group mental_status_triage num_prior_ed_visits_12m num_prior_admissions_12m num_active_medications num_comorbidities systolic_bp diastolic_bp mean_arterial_pressure pulse_pressure heart_rate respiratory_rate temperature_c spo2 gcs_total pain_score weight_kg height_cm bmi shock_index news2_score day_sin day_cos pain_location_back pain_location_chest pain_location_extremity pain_location_head pain_location_multiple pain_location_other pain_location_pelvis chief_complaint_system_crticial chief_complaint_system_genitourinary chief_complaint_system_mild chief_complaint_system_moderate chief_complaint_system_special systolic_bp_missing diastolic_bp_missing mean_arterial_pressure_missing pulse_pressure_missing respiratory_rate_missing temperature_c_missing shock_index_missing
feature_infos=[1:5] [1501:1683] [1:6] [1:94] [0:3] [0:4] [0:11] [0:9] [0:20] [0:20] [40:226.90000000000001] [20:134.80000000000001] [30.699999999999999:145.09999999999999] [-51:163.69999999999999] [30:204.40000000000001] [8:47.299999999999997] [35.100000000000001:41.799999999999997] [60.399999999999999:100] [3:15] [-1:10] [2:148.5] [45:210] [10:65] [0.19:4.7679999999999998] [0:17] [-0.97492791218182362:0.97492791218182362] [-0.90096886790241903:1] [0:1] [0:1] [0:1] [0:1] [0:1] [0:1] [0:1] [0:1] [0:1] [0:1] [0:1] [0:1] [0:1] [0:1] [0:1] [0:1] [0:1] [0:1] [0:1]
tree_sizes=965 1680 1508 2016 3048 2235 2171 1447 2402 1871 1094 1313 1878 2195 1999 1093 1314 1445 2414 1875 1093 3343 1445 2420 1972 1093 1320 1652 2838 1746 1196 1318 1444 2415 1991 1094 1831 1438 2403 1884 1200 1743 2407 2410 1868 1097 1302 1552 2306 1986 1097 1640 1444 2640 1991 1100 1322 2922 2202 1977 1098 2162 1447 2639 1869 1099 1315 1450 2511 1873 2035 2064 1882 2192 1878 894 1320 1762 2420 1878 1084 1318 2302 2420 1838 1090 1956 1446 2524 1961 2238 1325 1890 2222 1843 1097 1323 1457 2643 1849 1200 1317 2527 2422 1988 1950 2577 1558 1984 1985 995 1441 1553 2418 1995 2370 1431 1634 2421 1883 890 1968 1878 2401 3143 2140 1429 1556 2414 1965 891 1426 1668 2734 1995 1098 2067 1451 2324 1981 1096 1965 1455 2303 1879 896 2161 1442 2429 1883 887 1322 1780 2091 1745 895 1325 1450 1659 1761 1105 1323 1775 1565 1992 996 1324 1556 2212 3287 1095 1860 1685 3146 1665 2584 2166 1552 1572 3290 2355 1962 1552 2865 1847 2373 1434 1451 2101 2948 1289 1437 1243 2851 1986 1097 1433 2530 2519 1662 3126 2369 1888 2522 1873 1092 1856 1447 2525 1878 1209 1438 1343 2298 1996 888 1428 1346 2394 1976 1094 1432 2425 2440 1656 1414 1431 1665 2107 1761 1089 1747 1667 2539 1965 2550 1326 1575 2338 1534 1098 1433 1560 3072 1876 894 1431 2009 2319 1878 891 1432 2333 3075 1728 2058 1324 3166 2324 1885 997 2172 1574 2406 3268 1098 2166 1574 2943 1998 2249 1430 2431 1565 1883 993 1964 2421 2402 1775 1099 2073 1577 2542 1781 2331 2178 1579 2315 3154 2521 2712 1673 2419 1773 893 2054 1672 2313 1770 897 1430 1577 1990 1871 890 1419 1579 2849 1770 1099 1323 1581 2434 1882 1096 3470 1576 2543 1877 1203 1856 1458 2442 1783 2777 1855 1468 2444 1778 1100 1325 1577 2099 1540 1102 1962 1573 2093 1955 1106 1861 1671 2092 1968 894 1835 2100 2111 1969 896 1428 1792 2201 1685 892 1431 2004 2081 1656 889 1321 1687 2515 1874 893 1622 1683 2392 1651 892 1434 1776 2325 1778 893 1437 1787 1682 1761 1099 1432 1478 2288 1879 1095 1542 1780 1573 1784 892 1943 1682 2085 1890 888 1434 1685 2436 1997 1207 1544 1897 2285 1993 1098 1846 1790 2291 1877 1206 2268 2768 1973 2840 1100 1311 1787 1466 1984 1083 1542 1569 1559 1673 1098 1424 1790 1668 1888 895 1648 1585 2441 1638 1100 1650 1667 2318 2530 1099 1523 1472 1973 1988 1098 1524 2757 2181 2855 1101 2387 1466 2407 1997 1207 2490 2543 2504 1981 1104 1852 2007 2852 1770 1975 1977 1892 2061 1768 1103 1945 1669 2313 1951 1208 2067 1809 2315 1968 1397 1972 2007 2306 2992 2056 1868 1678 2289 1971 1200 3300 1568 2282 1780 1104 1964 1469 2315 1789 994 2588 1794 2063 1830 1104 2144 2339 1976 1962 1101 1736 1572 2420 1993 1098 1742 1579 3042 1991 1420 1657 1684 2226 1860 1423 1546 1684 2093 1876 1849 1753 2431 2299 1755 1205 1752 1558 2408 2513 1202 1821 2442 2925 1858 1204 1647 1476 1846 1837 2257 1864 1685 3009 1888 1521 1737 2541 1652 1782 1099 2406 1572 2417 1749 1102 2576 1251 2412 3523 2243 1656 2009 1677 1902 1503 2621 1805 3060 2013 1208 2083 1781 3236 1842 1097 1521 2304 2735 1878 1096 2258 1143 2943 1651 1206 1540 1140 2415 1982 1210 2180 1469 1449 3065 1206 2050 1571 1532 1676 1520 1952 1999 1653 1861 1423 2749 1141 1737 1770 1207 2269 1244 1720 1769 1213 2167 1147 1736 3078 1290 1436 1141 1852 1743 1105 2414 930 1963 1747 2037 2039 1903 1860 1978 1294 1741 2553 3130 2610 981 2497 2333 1889 1902 1000 2915 2858 1774 1898 1526 2072 1246 1559 1883 1527 1758 923 1646 1850 1098 1653 2207 1771 1569 1101 1623 2312 1672 1673 2146 2499 1786 1963 1859 1633 2466 1681 1762 2937 1315 1825 1776 2022 1884 1312 1848 2112 1774 1883 1101 1650 930 1630 1565 1081 2148 1122 1741 1897 1206 2161 1787 1766 1884 1104 2140 1898 1780 2963 1830 1543 2404 1833 1881 1758 2557 2437 1756 2562 1001 2251 922 1460 1871 2060 2189 1657 1861 2386 1309 1746 1780 1676 1783 1209 2297 2291 1640 1946 1188 1550 1144 3053 1771 1188 1977 929 1763 1548 1516 1756 2209 1645 1571 1411 1751 1565 1645 1961 893 1753 2747 1431 1878 1207 2054 1578 1546 1888 1728 2263 933 1984 1779 1105 2171 1253 1981 1890 1795 2068 2211 1624 2894 992 2272 2213 2392 1755 1093 1965 922 1748 1880 1099 2093 2312 1642 1875 1839 2290 2004 1736 1673 1082 2837 3120 2416 1687 1189 2167 2007 1641 1976 1187 2281 2423 2423 1958 1936 2802 2303 1643 1877 1080 1715 2184 1531 2620 1206 3083 1147 1665 1662 1211 3083 1151 1540 1664 1102 2517 1688 1728 1858 896 1745 1143 2169 1883 1312 2075 1781 2411 1882 1516 2579 2297 2096 1885 1320 1551 1885 1842 1969 1216 1668 2096 1852 1678 894 1875 1248 2755 1557 896 2692 2321 1237 1567 1427 2104 1886 1528 2071 1935 2202 1791 1625 1888 1211 1663 1144 1643 1899 1413 1660 1143 1555 1871 1188 1844 2527 1976 1759 1826 1763 2213 1878 1763 1211 1649 2199 1879 2010 902 1730 1467 1863 1687 1829 1654 2544 1341 1995 1099 1875 1254 1341 2002 1172 1767 2432 2740 2687 1172 1758 2309 1679 1676 1419 1650 1882 1557 2305 1413 1411 1673 2189 1967 1720 1760 1140 1638 1899 1955 2036 1137 1981 1673 1397 1850 1675 1657 2834 1390 1940 2103 1667 1841 899 1950 1140 1748 1942 897 1830 1576 1647 1969 1820 2032 2405 1716 1648 1793 1526 2336 1885 1644 1319 1871 2812 1898 1966 1526 1765 3039 1900 1965 1432 1974 2218 2414 3237 901 2892 1786 1674 1972 1636 1961 1143 1638 1897 1211 2896 1688 1671 1893 1635 1768 2752 1785 1883 1517 1848 2012 1642 1882 1417 2919 2435 1207 1571 1400 2203 2432 1339 1867 1221 1972 2409 1998 2277 1605 2094 2417 1671 1873 1393 2193 1251 1999 2602 1536 2951 1249 1871 1676 1601 1927 2981 1895 1794 1307 2033 2298 2171 1879 1654 2817 1245 1889 1979 1643 1959 1248 1885 1983 1698 1869 1880 1662 1656 1111 1653 2104 1562 1678 1829 1865 1674 2767 1876 1829 1942 2104 1868 1996 1507 1959 1580 2279 2003 1702 2597 1140 1880 1894 1215 2569 1778 1109 1772 1217 1874 2215 1537 1770 1311 2372 2714 3503 1822 1749 1746 2671 3467 1932 1286 2468 1574 1871 1974 1289 2281 2525 1539 1961 883 2875 2422 2335 2726 1111 2581 2512 2549 1738 2028 1941 2084 1753 1678 1505 1940 2205 1425 1919 1687 2556 1252 1651 1864 1728 1864 2095 1746 1672 1883 2247 1466 1817 1986 1727 2293 1647 1760 1842 899 1962 1258 2792 3158 1004 2055 2296 1858 1667 1317 2601 1979 1728 1838 2258 2607 1573 1624 1851 1829 1853 2534 1667 1761 1831 2698 2519 1945 1767 1723 2701 1249 1643 1674 1491 2558 1039 1831 1656 1596 2482 3287 2003 1673 1595 2088 3576 1987 1677 1784 1752 1874 1999 1969 985 1961 2000 1988 1440 1009 3019 1145 3505 1871 905 2614 2216 3517 1879 1191 2191 1674 1663 1885 898 2511 1140 1658 2732 1500 1952 1149 2245 1546 1283 2785 2727 2186 1680 1198 1960 1137 3018 1867 1204 1992 1253 3068 1780 1597 2962 1461 1890 2730 1836 1768 1138 1960 2825 1612 1975 2845 1875 2467 1614 1941 3152 2962 2597 1089 1646 3482 1463 1945 1088 1914 3113 1463 1967 1218 1870 1676 1437 2328 1215 1863 2915 1747 2591 1918 1865 1250 1630 1990 1938 1936 1035 1631 2722 1213 1759 2002 1138 2708 1963 1970 1255 1136 2726 1633 1870 2434 1540 1675 1520 2578 2524 1507 2485 1642 1858 1972 1460 2951 1643 1972 1256 1128 2819 1498 1423 1226 2112 1995 907 1425 1352 2960 1986 1195 1777 1999 2464 1750 1717 1738 1244 2294 1761 1781 1923 1145 1683 2402 1819 2755 1143 1687 2394 1743 1962 3576 1715 3222 1611 2585 3616 1887 2365 2901 1861 1571 2314 1763 2797 2652 1653 1571 2220 903 1850 1684 1554 1779 1409 1735 1680 1556 1791 1554 1618 2761 2724 2676 1412 2695 1984 1663 2469 1593 1761 2342 2005 2899 1188 1939 1892 2355 3014 1917 2523 1258 2648 3446 1728 1856 1264 2523 2984 1647 2436 2615 1901 1673 1645 1819 2934 1244 1655 1999 2674 3462 3171 1885 2023 2201 2285 1854 1869 1612 1846 2561 2769 3264 1735 1737 2599 2202 2284 1301 1569 3323 1602 1248 1304 1720 2602 2016 1245 1914 1986 1237 920 1982 1648 1888 1240 2402 1998 1714 1978 2394 2783 2615 1837 2680 1676 2792 1673 1639 1965 2720 1768 2608 1466 1934 1252 1348 1892 1723 1868 1222 1316 2388 2057 1975 1233 2970 2383 1645 1733 2004 3062 1718 1735 1700 1251 2509 1599 1514 3111 2815 1901 2624 1524 1840 1236 1249 2706 1637 1817 3374 1686 3501 1749 1644 1999 2724 3343 2337 1663 2316 3376 3471 2209 1419 2315 1890 3442 1833 1750 1136 2242 3375 1952 1744 1870 2244 1677 1761 2385 2692 2583 1845 1635 2382 1778 1959 1844 1613 1982 2483 3268 3128 1310 3253 2933 3148 2780 1302 1665 2714 1141 2813 1423 1770 3025 2951 2585 1477 1751 1774 3233 1248 1479 1767 2100 2273 1244 1631 2591 1267 1290 2527 1412 2592 1258 1750 2811 1839 1808 2415 1905 2544 1861 1819 1251 1749 2287 1361 1411 1138 2441 1991 1830 1733 1146 3298 1677 3182 1768 1676 3594 2983 2322 1640 1976 3593 2982 1735 1948 2398 1327 1849 988 1941 2148 1455 2688 1722 1964 1687 2918 2532 1836 1880 2432 1701 2635 2767 1962 3340 2705 2698 2910 1726 3378 2257 1837 1821 1876 1256 2719 1631 2432 1983 1237 3026 1231 1117 1631 2486 3475 2337 1724 1974 2809 3296 2660 1623 1993 3260 2037 2936 1637 1975 2851 1996 3269 2491 3122 2845 2642 2996 2571 1672 2613 2617 2822 1811 1981 2089 2964 1971 1863 1984 1043 2847 2075 1197 1989 1150 1965 2717 1938 1866 1147 1658 2831 2044 1519 3469 1450 3348 1414 1669 3555 1673 3233 1803 1856 1253 1503 2469 1845 1979 1255 1410 2575 2041 1769 2378 2239 2681 1863 1763 2393 2359 1723 2817 2612 1252 1245 2415 2496 3155 1260 3408 2642 1956 1873 3271 3056 2738 1724 1845 2472 2554 1746 1634 3035 1964 1238 2975 2599 1752 2250 1234 2931 1860 2781 1259 3449 1134 1819 1975 1250 1862 1137 1764 1885 1759 2710 1675 1595 1995 2002 1989 3466 1845 2007 1144 3512 1878 1440 1981 3445 1820 1893 2862 1247 2433 1779 3159 3109 1000 2877 1560 3035 2558 1984 2733 3490 3052 2782 1973 1981 3312 2198 2900 3290 2092 1591 2301 2501 3312 1777 1951 2287 1399 1435 1642 3232 3558 1204 1433 1136 3261 1684 1543 2160 2310 2992 2592 1630 1624 2287 1848 1919

Tree=0
num_leaves=8
num_cat=0
split_feature=18 18 24 19 17 12 12
split_gain=22264.8 1416.87 1197.56 415.387 356.829 291.516 274.84
threshold=8.5000000000000018 10.500000000000002 13.500000000000002 6.5000000000000009 80.550000000000011 65.450000000000017 57.95000000000001
decision_type=2 2 2 2 2 2 2
left_child=-1 2 4 -4 -2 -5 -6
right_child=1 -3 3 5 6 -7 -8
leaf_value=-2.8596834576749424 -2.9910471601770432 -3.2267804036374534 -3.2232421377380716 -2.9373153167937804 -3.0826453742367304 -3.0958430502641932 -3.2051402113512886
leaf_weight=55.281897515058517 2.3195201754569998 1697.8887684345245 3.2376635782420662 9.2780807018280047 5.8471237756311885 8.2632906250655633 81.424822825938463
leaf_count=1144 48 35136 67 192 121 171 1685
internal_value=-3.21187 -3.22273 -3.16075 -3.03996 -3.18962 -3.00642 -3.19618
internal_weight=1863.54 1808.26 110.371 20.779 89.5915 17.5414 87.2719
internal_count=38564 37420 2284 430 1854 363 1806
is_linear=0
shrinkage=1


Tree=1
num_leaves=15
num_cat=0
split_feature=18 18 19 15 17 17 23 18 23 23 23 15 15 19
split_gain=18512.7 4745.31 1458.61 890.341 284.689 274.328 210.852 155.45 155.198 104.8 86.8282 59.5868 30.6813 8.41004
threshold=14.500000000000002 8.5000000000000018 9.5000000000000018 24.650000000000002 88.750000000000014 80.15000000000002 0.90750000000000008 10.500000000000002 1.5545000000000002 1.1065000000000003 0.84650000000000014 26.750000000000004 27.750000000000004 5.5000000000000009
decision_type=2 2 2 2 2 2 2 2 2 2 2 2 2 2
left_child=1 -1 3 4 10 12 11 8 -7 -6 -2 -5 -3 -8
right_child=2 5 -4 6 9 7 13 -9 -10 -11 -12 -13 -14 -15
leaf_value=-1.8010214447685473 -1.7842431250908417 -1.7519828192384632 -1.6996558210344266 -1.7842479959497919 -1.8005351480715426 -1.7090257118293541 -1.7336061128805125 -1.6987267249648386 -1.7422942997549293 -1.7858289007660837 -1.7261349220000197 -1.7355087866303966 -1.7935773880090455 -1.7036834329798525
leaf_weight=199.86483693122864 13.103026896715162 14.50068309903145 47.345603853464127 25.856639742851257 5188.798651099205 326.70213729143143 8.5606442391872388 625.27644351124763 55.556834042072296 161.07987731695175 20.790136009454727 11.006542593240736 8.5606442391872388 30.399022400379181
leaf_count=1144 75 83 271 148 29700 1870 49 3579 318 922 119 63 49 174
internal_value=-1.78402 -1.72127 -1.79804 -1.7989 -1.79976 -1.7058 -1.73821 -1.7044 -1.71379 -1.80009 -1.74845 -1.7694 -1.76755 -1.7094
internal_weight=6737.4 1230.46 5506.94 5459.59 5383.77 1030.6 75.8228 1007.54 382.259 5349.88 33.8932 36.8632 23.0613 38.9597
internal_count=38564 7043 31521 31250 30816 5899 434 5767 2188 30622 194 211 132 223
is_linear=0
shrinkage=1


Tree=2
num_leaves=13
num_cat=0
split_feature=18 17 16 19 6 40 19 16 43 19 40 12
split_gain=3894.27 4177.6 2739.79 1590.75 632.899 436.789 409.916 352.102 313.814 298.493 117.14 9.05011
threshold=14.500000000000002 96.15000000000002 37.650000000000013 7.5000000000000009 1.5000000000000002 1.0000000180025095e-35 9.5000000000000018 38.050000000000004 1.0000000180025095e-35 7.5000000000000009 1.0000000180025095e-35 76.850000000000009
decision_type=2 2 2 2 2 2 2 2 2 2 2 2
left_child=-1 5 3 4 -3 6 8 9 -2 -4 -9 -5
right_child=1 2 7 11 -6 -7 -8 10 -10 -11 -12 -13
leaf_value=-1.0398667473614225 -0.99195998032335031 -1.0332605760889491 -1.012514862038292 -0.99490412784076088 -1.0154587058711295 -1.0396256549185003 -1.0395973791775421 -0.99039596254980089 -1.0394999166321575 -0.98071343141676415 -1.0388384582545509 -0.97897155155579252
leaf_weight=2032.0999425649643 2741.3008028268814 3608.9033198356628 734.30276215076447 16.734601259231567 776.71632051467896 67.515460252761841 60.590797662734985 723.05018544197083 44.721779227256775 108.19785296916962 15.869018435478209 196.77582859992981
leaf_count=7043 9501 12508 2545 58 2692 234 210 2506 155 375 55 682
internal_value=-1.01747 -1.01246 -1.02079 -1.02778 -1.03011 -0.994801 -0.993732 -1.00048 -0.992729 -1.0084 -0.991458 -0.980138
internal_weight=11126.8 9094.68 6180.55 4599.13 4385.62 2914.13 2846.61 1581.42 2786.02 842.501 738.919 213.51
internal_count=38564 31521 21421 15940 15200 10100 9866 5481 9656 2920 2561 740
is_linear=0
shrinkage=1


Tree=3
num_leaves=18
num_cat=0
split_feature=15 19 17 19 17 14 39 15 17 39 19 17 17 15 17 17 19
split_gain=4016.48 2009.61 1233.62 455.607 492.827 489.216 293.614 238.064 182.059 134.873 128.952 85.156 14.3315 10.4659 10.3154 7.16305 0.634668
threshold=18.650000000000002 7.5000000000000009 94.550000000000011 4.5000000000000009 97.750000000000014 100.45000000000002 1.0000000180025095e-35 20.350000000000005 95.65000000000002 1.0000000180025095e-35 7.5000000000000009 93.050000000000011 94.350000000000009 21.250000000000004 96.250000000000014 98.65000000000002 3.5000000000000004
decision_type=2 2 2 2 2 2 2 2 2 2 2 2 2 2 2 2 2
left_child=1 2 9 4 -4 -5 7 8 12 11 -10 -1 -2 14 -9 -8 -15
right_child=6 -3 3 5 -6 -7 15 13 10 -11 -12 -13 -14 16 -16 -17 -18
leaf_value=-1.2628687295600405 -1.26479574998949 -1.2657433112309944 -1.2247547705450534 -1.216945074847033 -1.2387572148374701 -1.2435475044604367 -1.2000691724091925 -1.2645852647745253 -1.2442107220717862 -1.1982907339343893 -1.2656222529279544 -1.2502707281711842 -1.2578954294702145 -1.2634429758198682 -1.2585611065892484 -1.2211808159964488 -1.2656050409449231
leaf_weight=363.27374619245529 347.90250164270401 702.20968851447105 1223.2948787510395 1159.5042138695717 2362.047912478447 274.37671521306038 19.726430505514148 240.30378979444504 492.9045752286911 12.296995639801024 109.64821112155914 329.71319559216499 147.05157285928726 145.00207358598709 170.62081450223923 12.040808230638502 1767.6931232213974
leaf_count=1418 1358 2741 4775 4526 9220 1071 77 938 1924 48 428 1287 574 566 666 47 6900
internal_value=-1.24555 -1.23718 -1.23367 -1.23056 -1.23398 -1.22203 -1.26111 -1.26162 -1.25473 -1.25583 -1.24811 -1.25689 -1.26277 -1.26487 -1.26212 -1.20739 -1.26545
internal_weight=9879.61 6426.72 5724.51 5019.22 3585.34 1433.88 3452.89 3421.13 1097.51 705.284 602.553 692.987 494.954 2323.62 410.925 31.7672 1912.7
internal_count=38564 25086 22345 19592 13995 5597 13478 13354 4284 2753 2352 2705 1932 9070 1604 124 7466
is_linear=0
shrinkage=1


Tree=4
num_leaves=28
num_cat=0
split_feature=6 16 14 16 15 14 5 44 5 6 14 15 15 15 14 16 14 15 16 14 5 15 14 14 16 14 15
split_gain=3887.61 2503.01 1420.39 558.964 548.598 371.138 339.527 336.981 226.621 189.679 148.956 107.498 91.3993 82.1 73.5958 57.1211 52.28 40.9692 40.9355 45.1464 18.7147 13.9591 6.61349 2.63126 5.46933 1.52456 0.847616
threshold=1.0000000180025095e-35 37.550000000000004 89.15000000000002 37.250000000000007 17.350000000000005 81.950000000000017 1.0000000180025095e-35 1.0000000180025095e-35 1.0000000180025095e-35 1.5000000000000002 97.750000000000014 19.250000000000004 17.350000000000005 17.450000000000003 97.350000000000009 37.850000000000001 80.15000000000002 13.450000000000001 37.650000000000013 84.950000000000017 1.0000000180025095e-35 17.150000000000002 93.350000000000009 84.550000000000011 38.050000000000004 88.750000000000014 16.650000000000002
decision_type=2 2 2 2 2 2 2 2 2 2 2 2 2 2 2 2 2 2 2 2 2 2 2 2 2 2 2
left_child=1 2 4 5 6 8 -1 18 9 -2 12 -6 -4 14 -7 16 17 -3 19 -5 -12 -10 -18 24 -17 -15 -20
right_child=3 15 10 7 11 13 -8 -9 21 -11 20 -13 -14 25 -16 23 22 -19 26 -21 -22 -23 -24 -25 -26 -27 -28
leaf_value=-1.8919202733612739 -1.9192765404708421 -1.9067096404549264 -1.9261476852311683 -1.9543823855249858 -1.9218267851208013 -1.945745441806698 -1.9270023404207843 -1.8542892387148433 -1.9516330653392722 -1.9476091034012901 -1.9509412251224025 -1.9511137700448842 -1.9517311052968569 -1.9605173894422019 -1.9616242912019053 -1.9552460733517696 -1.9544447690214442 -1.9455077694956389 -1.963982178478723 -1.9635441781820904 -1.9632533624200792 -1.9644170335217477 -1.9622783734600053 -1.964979146241947 -1.9641230722386558 -1.9643779523080533 -1.9652743809520314
leaf_weight=676.82956695556641 228.46052169799805 9.6209979057311994 161.72439336776733 285.27022361755371 138.20639848709106 265.57008504867554 103.23483467102051 8.5519981384277326 58.031415939331055 113.77211809158325 127.36368656158447 55.893416404724121 61.085700988769531 65.667128562927246 143.39868307113647 38.178563117980957 73.150126934051514 67.346985340118408 461.65518522262573 448.52175951004028 58.031415939331055 54.213559627532959 74.524555206298828 244.1900897026062 70.553984642028809 240.06680488586426 1556.1582326889038
leaf_count=4432 1496 63 1059 1868 905 1739 676 56 380 745 834 366 400 430 939 250 479 441 3023 2937 380 355 488 1599 462 1572 10190
internal_value=-1.94864 -1.92805 -1.91498 -1.95891 -1.90324 -1.94854 -1.89654 -1.9633 -1.9359 -1.92866 -1.94303 -1.93028 -1.93318 -1.95658 -1.95131 -1.95933 -1.95223 -1.94035 -1.96366 -1.96 -1.95486 -1.9579 -1.95847 -1.96382 -1.9611 -1.96359 -1.96499
internal_weight=5889.27 1959.93 1382.37 3929.34 974.164 1169.18 780.064 2760.16 454.478 342.233 408.205 194.1 222.81 714.703 408.969 577.565 224.643 76.968 2751.61 733.792 185.395 112.245 147.675 352.923 108.733 305.734 2017.81
internal_count=38564 12834 9052 25730 6379 7656 5108 18074 2976 2241 2673 1271 1459 4680 2678 3782 1471 504 18018 4805 1214 735 967 2311 712 2002 13213
is_linear=0
shrinkage=1


Tree=5
num_leaves=20
num_cat=0
split_feature=24 19 11 5 12 5 17 5 17 19 24 17 24 15 17 17 16 15 12
split_gain=8595.53 1401.86 950.67 739.798 574.982 371.962 317.113 306.821 233.8 227.725 109.291 88.73 79.1093 76.698 69.388 42.5953 33.1749 27.3836 4.53776
threshold=12.500000000000002 6.5000000000000009 63.150000000000013 3.5000000000000004 70.65000000000002 3.5000000000000004 84.250000000000014 3.5000000000000004 81.350000000000009 6.5000000000000009 9.5000000000000018 83.65000000000002 9.5000000000000018 32.150000000000013 88.65000000000002 85.450000000000017 38.550000000000004 24.750000000000004 56.650000000000013
decision_type=2 2 2 2 2 2 2 2 2 2 2 2 2 2 2 2 2 2 2
left_child=3 -2 5 8 9 6 -3 11 -1 -5 18 -4 -11 -12 16 -9 -6 -16 -10
right_child=1 2 7 4 14 -7 -8 15 10 12 13 -13 -14 -15 17 -17 -18 -19 -20
leaf_value=0.10431662969330144 -0.014155613121186038 0.21969608821510181 0.11757098005761821 -0.011408101200100105 0.016089622361742342 0.23191082597512835 0.11333784291577262 0.20549342597273115 0.0044828419517564076 0.069573411022620865 5.8450015672590509e-06 0.019786516682309945 0.169649375669605 0.065835777464707715 -0.0092873551706919716 0.10754693545224864 0.091043524731536568 0.026449549738717826 -0.014739247473714905
leaf_weight=4.9154996313154689 16.919218581169844 14.829326473176478 3.1602037996053722 3.2763755656778839 4.1681218184530717 40.586412411183119 29.34912832826376 4.0545255057513696 3.2725330740213385 4.6027690842747715 106.27223200723529 19.123008523136377 13.561520680785177 5.5032299011945716 27.295534212142229 6.5252400934696198 3.9071158617734909 8.6205336786806566 1546.4425493627787
leaf_count=88 352 232 57 68 84 638 523 66 67 89 2182 378 234 107 569 118 74 173 32465
internal_value=-2.85874e-05 0.137497 0.159328 -0.0107527 0.0480406 0.191045 0.151213 0.0757173 -0.0130784 0.122925 -0.0134602 0.0361694 0.147128 0.00357559 0.0104478 0.153135 0.0562073 -0.000305959 -0.0146935
internal_weight=1866.39 134.547 117.628 1731.84 65.432 84.7649 44.1785 32.863 1666.41 21.4407 1661.49 22.2832 18.1643 111.775 43.9913 10.5798 8.07524 35.9161 1549.72
internal_count=38564 2364 2012 36200 1291 1393 755 619 34909 391 34821 435 323 2289 900 184 158 742 32532
is_linear=0
shrinkage=0.0178976


Tree=6
num_leaves=19
num_cat=0
split_feature=23 19 15 19 5 17 15 17 19 5 19 12 12 12 5 12 15 15
split_gain=7695.79 2431.08 2178.81 1067.29 811.915 718.791 514.402 446.738 387.642 212.929 202.274 178.861 177.527 142.192 80.5768 38.1263 32.7655 29.8816
threshold=0.89950000000000008 4.5000000000000009 23.050000000000004 9.5000000000000018 1.0000000180025095e-35 83.050000000000011 22.650000000000002 88.450000000000017 4.5000000000000009 3.5000000000000004 9.5000000000000018 99.15000000000002 78.750000000000014 74.050000000000011 1.0000000180025095e-35 92.050000000000011 24.450000000000003 24.850000000000005
decision_type=2 2 2 2 2 2 2 2 2 2 2 2 2 2 2 2 2 2
left_child=2 -2 3 7 6 13 10 15 -4 -7 -3 14 -9 -6 -10 -1 -8 -13
right_child=1 4 8 -5 5 9 16 12 11 -11 -12 17 -14 -15 -16 -17 -18 -19
leaf_value=0.06028638950270105 -0.017111532330874431 -0.0031896526164854771 -0.016759638229392151 0.075446499661597444 -0.0038896718572881878 0.056415828718152011 0.037739931164169349 0.0016321510595676237 0.030406720587137441 0.03694456134540635 0.074529056208160679 -0.0092238090460222376 -0.016143401909719173 0.047467302995208863 0.060862418949138658 0.014634852837373764 0.06910256504941259 0.030859003058532369
leaf_weight=25.329233974218369 270.23896379768848 207.34173676371574 32.712597966194153 41.701547265052795 95.81220380961895 844.78685632348061 18.720879122614861 186.79432499408722 37.056224569678307 236.45131143927574 10.812888443469999 17.034735217690471 4480.7172504961491 20.518831565976143 152.0004249215126 8.555514067411421 41.291519418358803 8.470244422554968
leaf_count=138 1563 1188 188 224 546 4626 104 1071 207 1307 58 98 25986 113 829 48 223 47
internal_value=-0.000135181 0.0321998 -0.0114514 -0.0141538 0.0412364 0.0476351 0.0136317 -0.0149577 0.0402856 0.052182 0.000796179 0.0490286 -0.0154307 0.00528199 0.0550189 0.0493073 0.0598052 0.00419808
internal_weight=6736.35 1745.98 4990.37 4743.1 1475.74 1197.57 278.167 4701.4 247.274 1081.24 218.155 214.562 4667.51 116.331 189.057 33.8847 60.0124 25.505
internal_count=38564 9728 28836 27467 8165 6592 1573 27243 1369 5933 1246 1181 27057 659 1036 186 327 145
is_linear=0
shrinkage=0.0178976


Tree=7
num_leaves=12
num_cat=0
split_feature=18 24 19 6 24 16 43 19 5 19 5
split_gain=3763.4 7906.22 2063.55 812.32 748.547 375.517 314.225 305.499 233.522 130.436 23.8406
threshold=14.500000000000002 1.5000000000000002 7.5000000000000009 1.5000000000000002 7.5000000000000009 37.650000000000013 1.0000000180025095e-35 9.5000000000000018 1.0000000180025095e-35 4.5000000000000009 1.0000000180025095e-35
decision_type=2 2 2 2 2 2 2 2 2 2 2
left_child=-1 2 3 5 6 -2 7 -3 -5 -6 -11
right_child=1 4 -4 8 9 -7 -8 -9 -10 10 -12
leaf_value=-0.022157161046577466 -0.017171895397887018 0.028130961401732161 0.038075498329424931 -0.002713246874323564 0.037156987311481635 -0.0020590166337648235 -0.021925432351531889 -0.021892088422325116 0.015964412771547292 0.00052856311542659972 -0.018954792259489876
leaf_weight=2013.3641759753227 3525.4744638204575 3417.0075602829456 284.35935598611832 701.91333022713661 15.733758956193922 620.35322773456573 41.11998176574707 39.086316734552383 307.96539869904518 22.933894723653793 134.32246917486191
leaf_count=7043 12283 11754 973 2428 54 2143 143 136 1064 79 464
internal_value=-1.52767e-05 0.00487837 -0.00881551 -0.0114063 0.0251758 -0.0149124 0.0269739 0.0275605 0.00298182 -0.0111153 -0.0160837
internal_weight=11123.6 9110.27 5440.07 5155.71 3670.2 4145.83 3497.21 3456.09 1009.88 172.99 157.256
internal_count=38564 31521 18891 17918 12630 14426 12033 11890 3492 597 543
is_linear=0
shrinkage=0.0178976


Tree=8
num_leaves=21
num_cat=0
split_feature=24 19 19 17 24 6 6 19 6 16 16 15 24 15 10 15 16 19 24 13
split_gain=6814.7 996.28 676.357 641.243 635.745 408.804 312.032 203.876 144.888 129.315 106.826 90.3008 88.7702 83.8519 73.2957 29.395 22.6368 14.3702 7.18625 13.6449
threshold=1.5000000000000002 7.5000000000000009 4.5000000000000009 97.750000000000014 2.5000000000000004 1.0000000180025095e-35 1.5000000000000002 7.5000000000000009 1.5000000000000002 37.750000000000007 37.650000000000013 17.350000000000005 3.5000000000000004 17.350000000000005 100.25000000000001 17.350000000000005 37.050000000000004 2.5000000000000004 4.5000000000000009 15.250000000000002
decision_type=2 2 2 2 2 2 2 2 2 2 2 2 2 2 2 2 2 2 2 2
left_child=1 2 3 11 7 -5 9 8 13 -4 -8 -1 14 -2 15 -6 -10 -16 19 -14
right_child=4 -3 6 5 12 -7 10 -9 16 -11 -12 -13 18 -15 17 -17 -18 -19 -20 -21
leaf_value=0.026903276657788591 0.011226862965294179 -0.01986546764543554 0.036611958622589195 0.00088037473042971873 0.0047228499473636731 0.016451184421718605 0.019903714957399028 -0.019861198934907037 0.00014921500055233334 0.018374816794624289 -0.0021427922741947812 0.015352327190646262 -0.010409033902792081 -0.0021098604045969695 -0.0097702056978200297 -0.012555290747821498 -0.011376250189832156 -0.016480955567651379 -0.01984932595378993 -0.018605996941883345
leaf_weight=828.88852596282959 363.28428202867508 246.0223340690136 771.31298661231995 1314.3892886638641 94.537038207054138 917.45623034238815 242.14231815934181 186.0803174674511 67.702502340078354 152.10509163141251 98.409112304449081 300.76632633805275 82.4324611723423 256.86004877090454 134.88460317254066 46.629409372806549 261.16231319308281 550.55856123566628 2501.3212493956089 461.04467871785164
leaf_count=3206 1411 973 2974 5107 367 3559 936 735 264 588 381 1167 322 1002 528 182 1018 2163 9867 1814
internal_value=0.00011933 0.0151893 0.0170571 0.0128539 -0.0145432 0.007286 0.0282212 -0.00275719 0.000599021 0.0336257 0.013522 0.0238411 -0.0179965 0.0056962 -0.0127593 -0.000967156 -0.00898916 -0.0151769 -0.0194141 -0.0173841
internal_weight=9877.99 4871.49 4625.47 3361.5 5006.5 2231.85 1263.97 1135.09 949.009 923.418 340.551 1129.65 3871.41 620.144 826.61 141.166 328.865 685.443 3044.8 543.477
internal_count=38564 18891 17918 13039 19673 8666 4879 4430 3695 3562 1317 4373 15243 2413 3240 549 1282 2691 12003 2136
is_linear=0
shrinkage=0.0178976


Tree=9
num_leaves=16
num_cat=0
split_feature=19 17 16 6 14 14 17 6 16 6 14 14 14 17 6
split_gain=5505.59 4702.17 2275.56 1400.19 584.124 405.828 123.957 97.0135 91.8867 94.7901 73.5883 10.9838 4.76029 2.42213 6.39101
threshold=4.5000000000000009 97.350000000000009 37.550000000000004 1.0000000180025095e-35 92.550000000000011 86.15000000000002 96.550000000000011 1.0000000180025095e-35 37.850000000000001 1.0000000180025095e-35 73.950000000000017 72.15000000000002 85.950000000000017 96.15000000000002 1.0000000180025095e-35
decision_type=2 2 2 2 2 2 2 2 2 2 2 2 2 2 2
left_child=1 6 3 4 -3 -5 13 10 9 -4 -8 -9 -10 -1 -15
right_child=-2 2 8 5 -6 -7 7 11 12 -11 -12 -13 -14 14 -16
leaf_value=-0.016374502188000344 -0.016664942175690724 0.066268090230620275 0.019619707757252702 0.036025444862289535 0.023814914088385885 0.0049537425751663283 0.033719493702057998 -0.00034711161185306218 -0.0094416737130001878 -0.006624261411518474 0.0017633443163528413 -0.013182051959275359 -0.015701167321710379 -0.0070647445715132286 -0.016251434049019284
leaf_weight=651.04619257152081 3056.0484451502562 734.62019015848637 77.422132164239883 346.20487383008003 122.28148375451565 221.2137368619442 31.087325438857079 26.62679822742939 75.924365118145943 100.69083875417709 87.632014617323875 131.7245430201292 109.15656609833241 41.641013830900192 75.081059455871582
leaf_count=4298 20182 4629 506 2239 793 1451 198 174 504 665 566 869 726 269 495
internal_value=-4.63237e-06 0.0179692 0.0355972 0.0457916 0.060234 0.023937 -0.0121858 -0.00189553 -0.00437352 0.00477359 0.0102857 -0.0110684 -0.013197 -0.0158881 -0.0130676
internal_weight=5888.4 2832.35 1787.51 1424.32 856.902 567.419 1044.84 277.071 363.194 178.113 118.719 158.351 185.081 767.768 116.722
internal_count=38564 18382 11513 9112 5422 3690 6869 1807 2401 1171 764 1043 1230 5062 764
is_linear=0
shrinkage=0.0178976


Tree=10
num_leaves=9
num_cat=0
split_feature=18 18 17 12 12 19 5 15
split_gain=13367 1138.02 770.674 320.047 225.866 160.801 80.7384 34.9721
threshold=8.5000000000000018 10.500000000000002 84.250000000000014 65.450000000000017 74.050000000000011 6.5000000000000009 3.5000000000000004 22.250000000000004
decision_type=2 2 2 2 2 2 2 2
left_child=-1 2 4 5 7 -4 -5 -2
right_child=1 -3 3 6 -6 -7 -8 -9
leaf_value=0.21075129604319204 0.096858295308141454 -0.014894533726398821 -0.012610870375079311 -0.0056981983130061737 0.038127810897243014 0.095981233463242527 0.03862351577912293 0.20466288861261686
leaf_weight=91.091892249882221 2.8759440742433098 1649.3538883216679 5.1879926808178451 61.001064535230398 4.9221698381006709 21.751620929688215 16.225160416215658 10.254104774445294
leaf_count=1157 49 35035 104 1234 90 361 307 144
internal_value=-8.35136e-05 -0.0109836 0.0415939 0.0224844 0.147995 0.0750061 0.00372576 0.185865
internal_weight=1862.66 1771.57 122.218 104.166 18.0522 26.9396 77.2262 13.13
internal_count=38481 37324 2289 2006 283 465 1541 193
is_linear=0
shrinkage=0.0178976


Tree=11
num_leaves=11
num_cat=0
split_feature=24 18 18 19 19 24 18 17 15 24
split_gain=16949 3751.74 1590.86 527.662 405.305 151.329 168.348 68.0073 64.2703 38.2516
threshold=6.5000000000000009 8.5000000000000018 14.500000000000002 4.5000000000000009 9.5000000000000018 14.500000000000002 10.500000000000002 77.950000000000017 26.250000000000004 4.5000000000000009
decision_type=2 2 2 2 2 2 2 2 2 2
left_child=2 -2 -1 -3 8 7 -7 -5 9 -4
right_child=1 3 4 5 -6 6 -8 -9 -10 -11
leaf_value=0.07462920065791126 -0.017198845326317786 -0.016563122027582703 -0.016857439069002715 0.01641717349642928 0.07142444537051465 0.019447898361860543 0.07278065896723826 0.069025849278215548 0.025291377351113396 -0.010308807850195872
leaf_weight=62.169281423091888 204.61898399889469 24.399417102336884 4853.4708511531353 8.5798812061548215 16.394826248288155 45.563568338751793 33.144237264990807 1148.7300088107586 11.30506110191345 311.70640854537487
leaf_count=324 1156 142 28508 47 84 244 170 5945 62 1799
internal_value=4.27336e-06 0.053827 -0.0150033 0.0653644 -0.0160846 0.0669923 0.0422955 0.0686481 -0.0163697 -0.0164644
internal_weight=6720.08 1465.04 5255.05 1260.42 5192.88 1236.02 78.7078 1157.31 5176.48 5165.18
internal_count=38481 7704 30777 6548 30453 6406 414 5992 30369 30307
is_linear=0
shrinkage=0.0178976


Tree=12
num_leaves=16
num_cat=0
split_feature=18 24 6 24 16 24 16 5 16 5 5 15 39 11 24
split_gain=3737.79 7350.83 1040.99 683.851 571.358 328.343 283.975 253.587 253.311 179.824 136.259 122.909 121.2 50.6169 22.6055
threshold=14.500000000000002 1.5000000000000002 1.5000000000000002 7.5000000000000009 37.650000000000013 2.5000000000000004 37.350000000000001 1.0000000180025095e-35 37.350000000000001 1.0000000180025095e-35 1.0000000180025095e-35 26.750000000000004 1.0000000180025095e-35 83.950000000000017 8.5000000000000018
decision_type=2 2 2 2 2 2 2 2 2 2 2 2 2 2 2
left_child=-1 2 4 5 7 6 -3 -2 10 -6 -4 -7 -10 14 -5
right_child=1 3 8 13 9 11 -8 -9 12 -11 -12 -13 -14 -15 -16
leaf_value=-0.021949992406643616 -0.017587662545238667 0.0087595257015348812 -0.0065197211886492282 -0.0049115859102943134 -0.0035898105200905272 0.030601570128589169 0.025741279337570002 -0.0052838896059309026 0.018180281611495874 0.016202106933058843 0.012672268159729943 -0.0083574586023763813 -0.021744641143442652 0.017343229234372117 -0.019584923328969512
leaf_weight=2014.0486105382442 2908.2866320312023 533.60297110676765 412.64831250905991 54.182184219360352 480.64015781879425 2217.0920024514198 778.18934497237206 660.39784604310989 492.50005948543549 211.1391387283802 165.5993235707283 25.816784739494324 25.084628194570541 17.489512532949448 95.833651095628738
leaf_count=7102 10207 1831 1429 187 1659 7545 2654 2308 1694 727 569 89 87 60 333
internal_value=0.00010397 0.00499818 -0.00842614 0.024316 -0.0124279 0.0259818 0.0188439 -0.0153135 0.00712555 0.00244976 -0.00100725 0.0301488 0.0162151 -0.0109716 -0.0143577
internal_weight=11092.6 9078.5 5356.3 3722.21 4260.46 3554.7 1311.79 3568.68 1095.83 691.779 578.248 2242.91 517.585 167.505 150.016
internal_count=38481 31379 18680 12699 14901 12119 4485 12515 3779 2386 1998 7634 1781 580 520
is_linear=0
shrinkage=0.0178976


Tree=13
num_leaves=19
num_cat=0
split_feature=15 19 17 12 19 39 15 17 14 23 17 23 19 14 23 17 23 17
split_gain=3707.57 1860.78 1122.81 429.095 403.996 262.951 193.727 153.19 131.583 119.804 62.0064 52.1318 12.3806 7.22033 5.96996 5.57845 2.85845 0.494799
threshold=18.850000000000005 7.5000000000000009 94.050000000000011 91.15000000000002 4.5000000000000009 1.0000000180025095e-35 20.350000000000005 95.350000000000009 107.95000000000002 0.78450000000000009 92.250000000000014 0.72450000000000003 2.5000000000000004 81.750000000000014 0.54250000000000009 93.65000000000002 0.61550000000000005 91.750000000000014
decision_type=2 2 2 2 2 2 2 2 2 2 2 2 2 2 2 2 2 2
left_child=1 2 10 8 -5 6 7 15 -4 -9 17 -12 14 -7 -8 -2 -14 -1
right_child=5 -3 3 4 -6 13 12 9 -10 -11 11 -13 16 -15 -16 -17 -18 -19
leaf_value=-0.019337493029123395 -0.019484516345517046 -0.019772205899515616 0.0073726065767751479 0.013151441574826487 0.02613508995614186 0.022939078570554338 -0.0040369799723126735 0.0035702061242797348 -0.010486154172993747 -0.013802070061788334 0.00022232727024390665 -0.01392628700588964 -0.016816154630763448 0.043281593988251273 -0.015160311916241639 -0.014683635918988656 -0.019558652024153144 -0.015861067623356012
leaf_weight=209.84381458163261 246.25088465213776 704.13447916507721 1404.0845603495836 2669.6605259478092 1080.8922902941704 13.631079763174059 19.675322905182838 333.85260519385338 145.19303432106972 204.43747225403786 162.07389357686043 169.63219723105431 193.46138441562653 18.10475167632103 132.09845575690269 149.33990308642387 1939.1169866323471 57.28425195813179
leaf_count=836 981 2815 5414 10290 4119 52 78 1299 569 805 635 672 770 69 525 591 7733 228
internal_value=1.20917e-05 0.00771516 0.0109988 0.0136241 0.0168978 -0.0156348 -0.0161434 -0.00925594 0.00569236 -0.00302342 -0.0122184 -0.0070056 -0.018954 0.0352129 -0.0137745 -0.0177075 -0.0193166 -0.0186446
internal_weight=9852.77 6602.8 5898.66 5299.83 3750.55 3249.97 3218.23 933.881 1549.28 538.29 598.834 331.706 2284.35 31.7358 151.774 395.591 2132.58 267.128
internal_count=38481 25578 22763 20392 14409 12903 12782 3676 5983 2104 2371 1307 9106 121 603 1572 8503 1064
is_linear=0
shrinkage=0.0178976


Tree=14
num_leaves=17
num_cat=0
split_feature=19 17 6 16 16 5 17 5 44 6 16 24 24 17 6 24
split_gain=5230.87 4254.67 1853.36 829.913 534.098 273.15 230.962 213.55 210.546 121.721 109.257 97.0325 22.4714 13.3459 12.9894 0.135442
threshold=4.5000000000000009 97.550000000000011 1.0000000180025095e-35 37.550000000000004 37.150000000000013 1.0000000180025095e-35 96.750000000000014 1.0000000180025095e-35 1.0000000180025095e-35 1.0000000180025095e-35 37.250000000000007 1.0000000180025095e-35 1.0000000180025095e-35 96.250000000000014 1.0000000180025095e-35 1.0000000180025095e-35
decision_type=2 2 2 2 2 2 2 2 2 2 2 2 2 2 2 2
left_child=1 6 3 5 7 -3 13 -4 -6 10 -8 -5 -11 15 -15 -1
right_child=-2 2 4 11 8 -7 9 -9 -10 12 -12 -13 -14 14 -16 -17
leaf_value=-0.01446516990957933 -0.016621419944181648 0.061035409257020036 0.036383540307156827 0.027379085582692482 -0.0023384221696174335 0.02896055175860255 0.030202702997338786 0.00055125003608821985 0.084157997195735662 0.00065955231415543549 -0.0024921073982688774 -0.0033721188918296513 -0.01267278483601089 -0.0032677191845930701 -0.014227184353800841 -0.016498955772788364
leaf_weight=103.35937158763409 3018.6074460297823 751.52094097435474 286.22850197553635 55.516871646046638 398.34538161754608 98.2478908598423 75.216460764408112 65.862344264984131 8.7261400967836362 69.735353246331215 57.016281172633171 78.644306823611259 93.370751783251762 57.606045305728912 94.453665390610695 561.05347003042698
leaf_count=683 20205 4521 1816 357 2617 604 469 425 52 456 369 520 623 371 630 3763
internal_value=-0.000196024 0.0171691 0.0346158 0.0508234 0.0135824 0.0573529 -0.0101819 0.0297075 -0.000369731 0.00336109 0.0161047 0.00936359 -0.0069522 -0.0150869 -0.0101377 -0.0162024
internal_weight=5873.51 2854.9 1743.09 983.93 759.162 849.769 1111.81 352.091 407.072 295.339 132.233 134.161 163.106 816.473 152.06 664.413
internal_count=38481 18276 10912 6002 4910 5125 7364 2241 2669 1917 838 877 1079 5447 1001 4446
is_linear=0
shrinkage=0.0178976


Tree=15
num_leaves=9
num_cat=0
split_feature=18 18 24 12 19 17 17 19
split_gain=10752.8 1087.43 644.239 198.824 186.066 130.559 130.155 18.1527
threshold=8.5000000000000018 10.500000000000002 13.500000000000002 56.650000000000013 6.5000000000000009 87.65000000000002 80.550000000000011 8.5000000000000018
decision_type=2 2 2 2 2 2 2 2
left_child=-1 2 3 7 -4 -6 -5 -2
right_child=1 -3 4 6 5 -7 -8 -9
leaf_value=0.17052269380899923 0.057875302968229417 -0.014885009053728294 -0.011524557785150887 0.11465307720017474 0.15785537987346226 0.070994714861943239 0.0045489603741240047 0.13793804741538335
leaf_weight=110.75215968489647 3.2045309953391543 1624.7392246648669 3.3993724361062077 3.0969301983714095 16.454590350389484 10.731913685798643 86.761429764330387 3.4886342585086823
leaf_count=1157 52 35035 70 40 205 156 1714 52
internal_value=-9.95703e-05 -0.0109347 0.0393634 0.0163862 0.110289 0.125665 0.00901703 0.107058
internal_weight=1862.63 1751.88 127.137 96.5515 30.5859 27.1865 89.8584 6.69317
internal_count=38481 37324 2289 1858 431 361 1754 104
is_linear=0
shrinkage=0.0178976


Tree=16
num_leaves=11
num_cat=0
split_feature=24 18 18 19 19 24 18 15 18 24
split_gain=15856 3352.98 1487.98 467.079 385.339 128.386 147.421 62.4363 47.9712 38.5096
threshold=6.5000000000000009 8.5000000000000018 14.500000000000002 4.5000000000000009 9.5000000000000018 14.500000000000002 10.500000000000002 26.250000000000004 14.500000000000002 4.5000000000000009
decision_type=2 2 2 2 2 2 2 2 2 2
left_child=2 -2 -1 -3 7 8 -7 9 -5 -4
right_child=1 3 4 5 -6 6 -8 -9 -10 -11
leaf_value=0.069374299905704401 -0.017145574444560625 -0.016509233364375316 -0.016796043480000258 0.065401479851726452 0.067548537317970017 0.018672355997260033 0.06763910738287772 0.024349024692946569 0.053798821911825424 -0.010190743395513246
leaf_weight=65.710349127650261 202.19466711580753 24.116346880793571 4784.5666082799435 1065.3570189327002 17.111391693353653 46.423672556877136 35.033087760210037 11.542607009410856 153.77291202545166 308.41294033825397
leaf_count=324 1156 142 28508 5208 84 244 170 62 784 1799
internal_value=-2.0398e-06 0.050682 -0.0149255 0.0610418 -0.0160148 0.06249 0.0400853 -0.0163026 0.0639653 -0.0163982
internal_weight=6714.24 1526.9 5187.34 1324.7 5121.63 1300.59 81.4568 5104.52 1219.13 5092.98
internal_count=38481 7704 30777 6548 30453 6406 414 30369 5992 30307
is_linear=0
shrinkage=0.0178976


Tree=17
num_leaves=12
num_cat=0
split_feature=18 24 19 6 24 16 43 39 16 19 12
split_gain=3616.05 7015.78 1873.46 766.006 647.679 358.117 321.151 284.939 230.16 107.423 20.9351
threshold=14.500000000000002 1.5000000000000002 7.5000000000000009 1.5000000000000002 7.5000000000000009 37.650000000000013 1.0000000180025095e-35 1.0000000180025095e-35 37.350000000000001 4.5000000000000009 87.750000000000014
decision_type=2 2 2 2 2 2 2 2 2 2 2
left_child=-1 2 3 5 6 -2 7 -3 -5 -6 -11
right_child=1 4 -4 8 9 -7 -8 -9 -10 10 -12
leaf_value=-0.021714748982542675 -0.016467915154567307 0.026393955758531873 0.036338167284828457 -0.0046028527255095632 0.035317277800805305 -0.0016674033495337451 -0.021944822623756566 -0.022187551212670426 0.01280584260704707 -0.01760516236213536 0.0029307848034960679
leaf_weight=1994.5252476036549 3455.5323191285133 3500.9371407032013 284.68625977635384 527.43018674850464 14.239057958126066 618.38617143034935 45.109600991010666 38.620765596628189 450.28315350413322 135.12266674637794 17.32653996348381
leaf_count=7102 12211 11829 957 1828 48 2137 157 133 1547 472 60
internal_value=0.000104148 0.00489444 -0.00828956 -0.0108091 0.0236489 -0.0142232 0.025253 0.0258592 0.00341113 -0.0107861 -0.0152311
internal_weight=11082.2 9087.67 5336.32 5051.63 3751.36 4073.92 3584.67 3539.56 977.713 166.688 152.449
internal_count=38481 31379 18680 17723 12699 14348 12119 11962 3375 580 532
is_linear=0
shrinkage=0.0178976


Tree=18
num_leaves=21
num_cat=0
split_feature=24 19 24 19 17 6 6 19 39 43 5 15 5 24 10 15 19 24 13 17
split_gain=6202.78 899.11 643.279 566.672 548.991 389.026 256.629 198.983 158.054 132.013 112.158 103.566 100.394 100.075 73.8712 26.8896 19.7197 6.76635 15.6904 1.69055
threshold=1.5000000000000002 7.5000000000000009 2.5000000000000004 4.5000000000000009 97.65000000000002 1.0000000180025095e-35 1.5000000000000002 7.5000000000000009 1.0000000180025095e-35 1.0000000180025095e-35 1.0000000180025095e-35 17.950000000000003 1.5000000000000002 3.5000000000000004 100.25000000000001 17.650000000000002 2.5000000000000004 4.5000000000000009 15.250000000000002 97.850000000000009
decision_type=2 2 2 2 2 2 2 2 2 2 2 2 2 2 2 2 2 2 2 2
left_child=1 3 7 4 12 -6 10 8 9 -2 -5 -8 -1 14 15 -4 -16 18 -15 -10
right_child=2 -3 13 6 5 -7 11 -9 19 -11 -12 -13 -14 17 16 -17 -18 -19 -20 -21
leaf_value=0.025593360468923184 -0.0016193896624523108 -0.019628194700092704 0.0044679415602638696 0.034449358401705876 0.00098415295369376401 0.015915526292275627 0.01812005426098327 -0.01958488389151563 0.045942817088500842 0.037182760417672295 0.020294226203157718 -0.0051351619125485602 0.011769215363641594 -0.0097106173218524192 -0.0080824396683050418 -0.012580041556408782 -0.01604370940541304 -0.019579981961890456 -0.018476764980919939 0.03052708825951219
leaf_weight=844.97194555401802 903.15631480515003 237.38706229627132 103.13775238394737 712.00618073344231 1337.4709432721138 960.94578889012337 261.19610929489136 179.50450305640697 18.424932152032856 28.487792521715164 246.5687250494957 79.413769423961639 213.88628742098808 81.898149445652962 128.20857568085194 40.980071038007736 540.97920723259449 2454.1931772828102 461.04577124118805 12.251077711582182
leaf_count=3198 3534 957 403 2657 5167 3668 990 725 70 109 924 305 814 325 509 163 2167 9893 1856 47
internal_value=1.74866e-05 0.0143073 -0.0141026 0.0160405 0.0121502 0.00723144 0.0260807 -0.00231183 0.000912533 -0.000407475 0.0308268 0.0126814 0.0228133 -0.0176335 -0.0120325 -0.000365833 -0.0145343 -0.0191492 -0.0171753 0.0405574
internal_weight=9846.11 4893.85 4952.27 4656.46 3357.27 2298.42 1299.18 1141.82 962.32 931.644 958.575 340.61 1058.86 3810.44 813.306 144.118 669.188 2997.14 542.944 30.676
internal_count=38481 18680 19801 17723 12847 8835 4876 4485 3760 3643 3581 1295 4012 15316 3242 566 2676 12074 2181 117
is_linear=0
shrinkage=0.0178976


Tree=19
num_leaves=16
num_cat=0
split_feature=19 24 16 16 5 44 5 7 14 16 16 14 5 14 16
split_gain=5067.68 2736.57 667.963 626.806 467.762 330.109 279.869 265.704 193.095 94.8622 50.0493 47.3584 29.4546 12.6454 5.20317
threshold=4.5000000000000009 1.0000000180025095e-35 37.150000000000013 37.550000000000004 1.0000000180025095e-35 1.0000000180025095e-35 1.0000000180025095e-35 1.0000000180025095e-35 97.350000000000009 37.650000000000013 36.95000000000001 65.15000000000002 1.0000000180025095e-35 82.550000000000011 37.750000000000007
decision_type=2 2 2 2 2 2 2 2 2 2 2 2 2 2 2
left_child=1 3 6 4 7 9 8 -1 -3 -4 -6 14 -13 -8 -5
right_child=-2 2 5 11 10 -7 13 -9 -10 -11 -12 12 -14 -15 -16
leaf_value=0.047700164651837705 -0.016578529713075565 0.030092232070595418 -0.0036267383621456993 0.038848511743704239 0.023220134466653084 0.083227551271345609 0.0034950843469920786 0.019031276852438675 0.0031230498092898089 -0.014995859658121485 0.0032534568451240225 0.0047339667674107556 -0.013404788312197947 -0.0098698860863089388 0.016156690556349128
leaf_weight=899.72740665078163 2977.6431643515825 312.84747357666492 425.78467850387096 10.807532027363779 70.536502525210381 11.834845274686812 27.947728604078293 118.84428212046623 117.57618162035942 530.03385333716869 94.995835244655609 121.50408120453358 36.965067237615585 103.94592885673046 7.7524904608726493
leaf_count=5310 20205 1931 2782 69 440 69 182 750 759 3607 601 795 246 684 51
internal_value=-0.00019106 0.0166849 0.000255514 0.035141 0.0398359 -0.00875431 0.0157643 0.0443718 0.0227509 -0.00994192 0.0118408 0.00368188 0.000437499 -0.00699132 0.030344
internal_weight=5868.75 2891.1 1529.97 1361.13 1184.1 967.653 562.317 1018.57 430.424 955.819 165.532 177.029 158.469 131.894 18.56
internal_count=38481 18276 10014 8262 7101 6458 3556 6060 2690 6389 1041 1161 1041 866 120
is_linear=0
shrinkage=0.0178976


Tree=20
num_leaves=9
num_cat=0
split_feature=18 18 5 19 17 24 12 12
split_gain=8895.29 1096.19 529.674 244.992 213.986 124.596 88.7177 83.4959
threshold=8.5000000000000018 10.500000000000002 3.5000000000000004 6.5000000000000009 83.850000000000009 11.500000000000002 64.15000000000002 74.050000000000011
decision_type=2 2 2 2 2 2 2 2
left_child=-1 2 4 -4 7 -5 -6 -2
right_child=1 -3 3 5 6 -7 -8 -9
leaf_value=0.14288709925659168 0.11849521474955602 -0.014875473828061564 -0.012730567434013728 0.055437539917580353 0.041375547169043972 0.13877899279462261 -0.003566689618275247 0.01611182536099141
leaf_weight=129.12601652741432 7.7972689196467382 1608.9024963192642 5.4592776000499716 9.4287679530680197 17.260538518428802 21.796270381659269 66.684510689228773 4.1442187428474426
leaf_count=1150 92 35230 107 166 276 271 1326 70
internal_value=-0.000147067 -0.0107937 0.0385699 0.0959676 0.0161691 0.115058 0.00579389 0.0854933
internal_weight=1870.6 1741.47 132.571 36.6843 95.8865 31.225 83.945 11.9415
internal_count=38688 37538 2308 544 1764 437 1602 162
is_linear=0
shrinkage=0.0178976


Tree=21
num_leaves=30
num_cat=0
split_feature=24 24 24 5 5 5 12 17 24 11 24 11 11 5 17 6 15 11 5 11 24 11 5 17 6 17 16 12 15
split_gain=15157.4 616.196 581.552 314.558 176.853 160.414 170.034 155.88 125.312 98.1458 96.9962 84.648 80.1776 39.9447 38.0591 31.7476 30.6608 27.8781 15.0604 14.4041 13.285 27.4491 20.1923 8.17025 7.3512 6.26232 2.38772 9.80736 0.50302
threshold=5.5000000000000009 13.500000000000002 6.5000000000000009 3.5000000000000004 1.0000000180025095e-35 3.5000000000000004 61.95000000000001 83.050000000000011 4.5000000000000009 59.350000000000001 7.5000000000000009 73.15000000000002 61.95000000000001 1.0000000180025095e-35 88.15000000000002 3.5000000000000004 29.050000000000004 62.550000000000004 1.0000000180025095e-35 64.15000000000002 3.5000000000000004 56.45000000000001 1.0000000180025095e-35 83.250000000000014 3.5000000000000004 94.750000000000014 38.650000000000013 82.15000000000002 23.950000000000003
decision_type=2 2 2 2 2 2 2 2 2 2 2 2 2 2 2 2 2 2 2 2 2 2 2 2 2 2 2 2 2
left_child=8 2 4 7 19 10 -7 17 20 13 -4 -6 -9 -10 23 18 -16 -3 -11 -2 26 22 -22 -5 -23 -15 28 -28 -1
right_child=1 3 5 14 11 6 -8 12 9 15 -12 -13 -14 25 16 -17 -18 -19 -20 -21 21 24 -24 -25 -26 -27 27 -29 -30
leaf_value=-0.016862360093882815 0.0090794703675267634 -0.0078866173278951159 0.041674241063822448 -0.015503417441216727 0.044252585413050889 0.0098576973956431991 0.047900886535021663 0.031420226335340438 -0.0016542109829684347 -0.014794227171690729 0.058920014431876395 0.010613421579019988 0.058386475967791084 0.024190787142474548 0.024150357640445937 0.017180896626076102 -0.0088146846368260309 0.027886199157655594 -0.0042371448622336317 -0.011739839898695854 -0.012684138012945913 -0.015164768492187831 0.019097863181302351 -0.0031446234810526292 -0.0046061670315023949 0.048660817168225672 0.00055819678400474465 -0.015578465386226438 -0.0092319353874479627
leaf_weight=4267.9784133434296 13.151457160711287 25.89124758541584 126.75905418395996 39.554406493902206 65.290233239531517 47.705391481518745 191.17066778242588 83.293811202049255 10.81473261117935 92.189274743199348 940.6097097247839 39.128821283578873 66.760784298181534 8.6075339019298571 23.884926736354828 14.610428765416144 13.706455588340758 8.9675096273422223 85.939277827739716 45.277743741869926 10.941915541887285 314.35258547961712 13.821468964219092 32.921976640820503 24.959585174918175 12.731484293937681 12.872873947024344 100.62443165481091 8.0864641815423948
leaf_count=25815 74 148 633 228 337 252 929 418 63 546 4428 216 315 48 123 82 76 46 493 265 65 1882 78 179 147 65 77 613 47
internal_value=9.88718e-05 0.0451724 0.0499166 0.0214811 0.0179017 0.0538951 0.0403639 0.0357114 -0.0158741 -0.00278134 0.0568977 0.0318125 0.0436094 0.0258862 -0.00242598 -0.00764822 0.0120192 0.00141312 -0.00975949 -0.00691769 -0.0164919 -0.0130821 0.00485029 -0.0100291 -0.0144131 0.0398317 -0.0167719 -0.0137026 -0.0168504
internal_weight=6742.6 1764.07 1469.09 294.981 162.848 1306.24 238.876 184.913 4978.53 224.893 1067.37 104.419 150.055 32.1538 110.068 192.739 37.5914 34.8588 178.129 58.4292 4753.64 364.076 24.7634 72.4764 339.312 21.339 4389.56 113.497 4276.06
internal_count=38688 8667 7134 1533 892 6242 1181 927 30021 1297 5061 553 733 176 606 1121 199 194 1039 339 28724 2172 143 407 2029 113 26552 690 25862
is_linear=0
shrinkage=0.0178976


Tree=22
num_leaves=12
num_cat=0
split_feature=18 17 16 19 6 39 43 19 39 16 11
split_gain=3454.96 3496.65 2247.41 1370.88 595.912 495.872 349.277 345.988 227.475 165.774 1.59884
threshold=14.500000000000002 96.550000000000011 37.750000000000007 7.5000000000000009 1.5000000000000002 1.0000000180025095e-35 1.0000000180025095e-35 9.5000000000000018 1.0000000180025095e-35 38.150000000000013 56.850000000000001
decision_type=2 2 2 2 2 2 2 2 2 2 2
left_child=-1 5 3 4 -3 6 7 -2 9 -4 -5
right_child=1 2 8 10 -6 -7 -8 -9 -10 -11 -12
leaf_value=-0.021487223668571781 0.021679635828373938 -0.015176758372377494 0.012756448985222511 0.024227010380975182 0.0022136516726507949 -0.021752620802965701 -0.021652432093406431 -0.021632799828209107 -0.022011119380708235 0.026215383500496073 0.034797042484678548
leaf_weight=1987.9756415188313 3185.9235225617886 3519.0265427529812 647.68711534142494 13.780092567205427 768.27137792110443 92.854084402322769 62.537716627120972 59.682524979114532 44.65379273891449 542.05948042869568 201.1727851331234
leaf_count=7151 10771 12466 2202 46 2646 328 221 211 155 1822 669
internal_value=-0.000106915 0.00454483 -0.00397906 -0.00984561 -0.0120592 0.0189228 0.0200693 0.0208782 0.0174088 0.0189017 0.0342039
internal_weight=11125.6 9137.65 5736.65 4502.25 4287.3 3401 3308.14 3245.61 1234.4 1189.75 214.953
internal_count=38688 31537 20006 15827 15112 11531 11203 10982 4179 4024 715
is_linear=0
shrinkage=0.0178976


Tree=23
num_leaves=21
num_cat=0
split_feature=24 19 24 19 17 6 5 19 6 24 24 24 5 5 10 19 5 19 24 13
split_gain=6058.44 884.539 608.787 595.747 579.219 382.96 239.385 191.215 155.659 118.91 112.238 110.307 108.98 98.8925 76.8048 30.7239 23.7052 15.7101 6.61981 14.762
threshold=1.5000000000000002 7.5000000000000009 2.5000000000000004 4.5000000000000009 97.750000000000014 1.0000000180025095e-35 1.0000000180025095e-35 7.5000000000000009 1.5000000000000002 1.0000000180025095e-35 3.5000000000000004 1.0000000180025095e-35 1.0000000180025095e-35 1.5000000000000002 100.25000000000001 7.5000000000000009 1.0000000180025095e-35 7.5000000000000009 4.5000000000000009 15.250000000000002
decision_type=2 2 2 2 2 2 2 2 2 2 2 2 2 2 2 2 2 2 2 2
left_child=1 3 7 4 13 -6 9 8 12 -5 14 -8 -2 -1 15 -4 -10 -16 19 -12
right_child=2 -3 10 6 5 -7 11 -9 16 -11 18 -13 -14 -15 17 -17 -18 -19 -20 -21
leaf_value=0.024730452134630043 0.010806135738814435 -0.019460784152848638 0.0039259306009132647 0.036347235755405813 0.00025204680673160211 0.015169153713364457 0.023259875266345587 -0.019447805633525408 -0.0052774989762625875 0.023599353830842471 -0.0096603116920437812 0.0033856296585771046 -0.005071556175999776 0.011339530183572869 -0.012504480828784661 -0.018939715865202208 -0.015034456631249294 -0.019431502186192322 -0.019468985044040949 -0.018327273553391522
leaf_weight=924.92817768454552 434.91840703785419 239.5573998093605 122.12156891822815 527.58955660462379 1311.2121816277504 951.74653935432434 180.71258935332298 181.02335444092751 198.93802329897881 437.55855241417885 78.752177596092224 178.61871606111526 202.11621440947056 222.13003212213516 500.3743599653244 21.728737711906433 136.8938072770834 141.00305391848087 2441.9883200079203 455.93542745709419
leaf_count=3462 1698 980 479 1939 5057 3605 670 740 784 1620 315 670 791 839 2014 88 540 576 9964 1857
internal_value=0.000126381 0.0140521 -0.0139632 0.0157509 0.0117881 0.00653036 0.0259409 -0.00258349 0.000556809 0.030589 -0.0174514 0.0134152 0.00575933 0.0221484 -0.011401 0.000378376 -0.00928836 -0.0140503 -0.0190433 -0.0170718
internal_weight=9889.85 4974.05 4915.79 4734.5 3410.02 2262.96 1324.48 1153.89 972.866 965.148 3761.9 359.331 637.035 1147.06 785.228 143.85 335.832 641.377 2976.68 534.688
internal_count=38688 18842 19846 17862 12963 8662 4899 4553 3813 3559 15293 1340 2489 4301 3157 567 1324 2590 12136 2172
is_linear=0
shrinkage=0.0178976


Tree=24
num_leaves=17
num_cat=0
split_feature=19 24 16 16 15 5 15 14 14 15 15 14 14 16 15 15
split_gain=4980.55 2757.11 595.998 581.813 389.121 384.759 259.898 212.752 99.4228 57.4726 39.2274 22.4939 16.7895 9.61403 12.4424 0.736493
threshold=4.5000000000000009 1.0000000180025095e-35 37.550000000000004 37.550000000000004 15.950000000000001 1.0000000180025095e-35 15.750000000000002 97.950000000000017 97.750000000000014 17.450000000000003 15.750000000000002 82.550000000000011 63.95000000000001 37.850000000000001 11.950000000000001 15.65
decision_type=2 2 2 2 2 2 2 2 2 2 2 2 2 2 2 2
left_child=1 3 4 5 7 6 -1 -3 -6 -7 11 -5 -12 14 -4 -15
right_child=-2 2 13 10 8 9 -8 -9 -10 -11 12 -13 -14 15 -16 -17
leaf_value=0.051582185527317442 -0.016534866229355353 0.030489656007415308 0.011608038990141326 0.020495896475692117 0.0045051328741174644 0.018910426935139692 0.033737263586415864 0.00093831097759434579 -0.011733986641106879 -0.0065380925857302956 0.019458126219571444 -0.0010687714183551828 -0.0049053050774078705 -0.013516871682184755 -0.011403413302676175 -0.016124560344404574
leaf_weight=539.40249943733215 2945.7794375866652 284.64902549982071 7.1918701082468024 52.909451082348824 351.02835124731064 129.96352122724056 523.28609958291054 108.05529883503914 183.37056903541088 35.680106297135353 9.4429433941841108 21.051897317171097 96.427709445357323 105.58187972009182 195.89098323881626 304.60330505669117
leaf_count=3079 20275 1740 48 342 2223 803 3031 704 1211 226 60 139 635 732 1332 2108
internal_value=-7.56745e-05 0.0163662 -0.000179011 0.0344625 0.00887004 0.0388634 0.0428204 0.0223847 -0.00106187 0.0133904 0.00434587 0.0143132 -0.00259674 -0.0138645 -0.0105335 -0.0154847
internal_weight=5894.31 2948.54 1540.37 1408.16 927.103 1228.33 1062.69 392.704 534.399 165.644 179.832 73.9613 105.871 613.268 203.083 410.185
internal_count=38688 18413 10098 8315 5878 7139 6110 2444 3434 1029 1176 481 695 4220 1380 2840
is_linear=0
shrinkage=0.0178976


Tree=25
num_leaves=9
num_cat=0
split_feature=18 18 24 5 5 19 17 5
split_gain=7698.25 1048.36 459.682 193.66 110.979 107.123 57.9858 41.4137
threshold=8.5000000000000018 10.500000000000002 13.500000000000002 3.5000000000000004 2.5000000000000004 6.5000000000000009 83.65000000000002 1.5000000000000002
decision_type=2 2 2 2 2 2 2 2
left_child=-1 2 3 6 7 -5 -2 -4
right_child=1 -3 4 5 -6 -7 -8 -9
leaf_value=0.12445539866002994 0.05375693822865471 -0.01486624192605049 0.068475597208749003 -0.012496513202994414 0.11880197962053059 0.078901606999249294 -0.0020081357002855412 0.00096158962571295421
leaf_weight=145.86671027541161 6.0106417238712302 1584.73303636536 12.110357597470285 4.8941571600735214 20.272207956761122 19.297181449830532 71.021569825708866 4.0324291810393325
leaf_count=1150 88 35230 158 96 211 289 1404 62
internal_value=-0.000156224 -0.0107457 0.0365378 0.0166605 0.0906662 0.0602948 0.00258397 0.0524932
internal_weight=1868.24 1722.37 137.639 101.224 36.415 24.1913 77.0322 16.1428
internal_count=38688 37538 2308 1877 431 385 1492 220
is_linear=0
shrinkage=0.0178976


Tree=26
num_leaves=11
num_cat=0
split_feature=24 18 19 18 18 24 19 18 15 24
split_gain=14305.1 2551.16 958.367 521.562 264.018 287.221 218.725 130.148 18.4562 11.8579
threshold=5.5000000000000009 8.5000000000000018 4.5000000000000009 14.500000000000002 14.500000000000002 7.5000000000000009 9.5000000000000018 10.500000000000002 25.950000000000003 4.5000000000000009
decision_type=2 2 2 2 2 2 2 2 2 2
left_child=3 -2 -3 -1 7 -6 8 -4 9 -5
right_child=1 2 4 6 5 -7 -8 -9 -10 -11
leaf_value=0.06328658289610857 -0.017152348498725309 -0.016881389157736904 0.04896001739510647 -0.016650520413407689 0.017488482334079052 0.056047207931372904 0.062049915699841855 0.060911255706226144 0.0094031474718540911 -0.011967873822583174
leaf_weight=26.056544661521912 201.1733233332634 64.824559971690178 494.2393988519907 4669.4182201325893 129.77737013995647 120.00504003465176 10.899624049663542 812.29237489402294 8.2680314779281598 195.52635407447815
leaf_count=121 1150 381 2264 28644 698 558 51 3616 45 1160
internal_value=8.6086e-05 0.0429043 0.0503635 -0.0158066 0.0531727 0.0361113 -0.0162361 0.0564151 -0.0164187 -0.0164648
internal_weight=6732.48 1822.31 1621.14 4910.17 1556.31 249.782 4884.11 1306.53 4873.21 4864.94
internal_count=38688 8667 7517 30021 7136 1256 29900 5880 29849 29804
is_linear=0
shrinkage=0.0178976


Tree=27
num_leaves=14
num_cat=0
split_feature=18 17 16 15 19 39 15 43 15 16 15 15 23
split_gain=3348.49 3348.78 2157.86 1350.39 1022.57 475.828 335.381 351.185 260.186 199.764 144.497 77.267 28.6905
threshold=14.500000000000002 96.550000000000011 37.750000000000007 18.950000000000003 7.5000000000000009 1.0000000180025095e-35 25.350000000000005 1.0000000180025095e-35 17.450000000000003 38.250000000000007 20.750000000000004 25.650000000000002 0.82350000000000001
decision_type=2 2 2 2 2 2 2 2 2 2 2 2 2
left_child=-1 5 3 4 -3 6 7 -2 9 -4 -5 -10 -8
right_child=1 2 8 10 -6 -7 12 -9 11 -11 -12 -13 -14
leaf_value=-0.021277558075305923 0.021375555375762807 -0.015005283349248538 0.0024808359899166519 0.0096976032321381377 0.03416220845834364 -0.021550894563140278 0.0035174428716544916 -0.021454989407580918 0.026725569609049905 0.023859736628553712 0.029033620799277068 -0.011565109383571697 -0.019431077337153546
leaf_weight=1968.0583088994026 3170.9810537099838 3820.9345234632492 449.48050934076309 314.2690098285675 139.94978687167168 92.05784398317337 22.420039564371109 62.017710983753204 570.94420653581619 203.4243398308754 206.13066557049751 16.917630016803741 70.504057437181473
leaf_count=7151 10659 13591 1531 1084 461 328 76 221 1909 681 691 58 247
internal_value=-0.000103606 0.0044559 -0.00391617 -0.0097003 -0.0132625 0.0184718 0.0195844 0.020549 0.0169652 0.00916382 0.0173882 0.0256049 -0.0138425
internal_weight=11108.1 9140.03 5722.05 4481.28 3960.88 3417.98 3325.92 3233 1240.77 652.905 520.4 587.862 92.9241
internal_count=38688 31537 20006 15827 14052 11531 11203 10880 4179 2212 1775 1967 323
is_linear=0
shrinkage=0.0178976


Tree=28
num_leaves=25
num_cat=0
split_feature=24 24 39 12 6 16 15 15 6 6 16 6 16 5 6 6 16 12 24 13 6 6 5 16
split_gain=5848.38 598.639 259.548 210.289 172.456 144.826 103.745 90.8978 77.9304 69.7724 52.8608 44.141 44.6388 27.8719 50.2372 27.1058 23.6295 9.70389 6.53843 14.6274 8.67614 5.24886 9.55447 0.224767
threshold=1.5000000000000002 3.5000000000000004 1.0000000180025095e-35 91.850000000000009 1.5000000000000002 37.650000000000013 13.65 18.350000000000005 1.0000000180025095e-35 1.5000000000000002 38.050000000000004 1.0000000180025095e-35 37.150000000000013 1.5000000000000002 1.0000000180025095e-35 1.0000000180025095e-35 37.150000000000013 91.950000000000017 4.5000000000000009 15.250000000000002 1.0000000180025095e-35 1.5000000000000002 1.0000000180025095e-35 36.550000000000004
decision_type=2 2 2 2 2 2 2 2 2 2 2 2 2 2 2 2 2 2 2 2 2 2 2 2
left_child=3 2 4 10 5 -2 11 8 -8 -9 13 12 -5 14 -1 -15 -6 -13 19 20 -3 22 -12 -21
right_child=1 18 -4 6 16 -7 7 9 -10 -11 21 17 -14 15 -16 -17 -18 -19 -20 23 -22 -23 -24 -25
leaf_value=0.005537909656960438 0.0027971934291250757 -0.00041542505985592141 0.041562802653596687 -0.002121097389903417 -0.007698627139520413 -0.0097801532186897813 0.015138674265540298 0.013873183010298877 0.021201763795191345 -0.0026912775376096119 0.0031394291494422715 0.022641816365140715 0.011825123555939265 0.010961535545669173 0.013446451399517275 -0.002549306781625761 -0.015693776213226922 0.01257814182741477 -0.01933318671843378 -0.013692722462984006 -0.013523106883642224 -0.015214603330067206 -0.014781511278236056 -0.018386052029029029
leaf_weight=515.88348571956158 658.44295264780521 24.390303328633308 35.430356323719025 167.10615596175194 156.63748726248741 527.36687281727791 1324.5980088561773 278.20153747498989 1436.495639398694 114.12466987967491 22.359481543302536 39.065692275762558 129.83824151754379 73.392461076378822 522.30696442723274 131.98269011080265 554.5637085288763 210.4847774207592 2412.0856681466103 20.864090546965599 53.945395901799202 23.613075405359268 15.483468219637869 430.28233408927917
leaf_count=1960 2607 98 132 637 629 2109 4993 1048 5361 440 85 145 491 278 1962 503 2233 788 9964 86 217 91 60 1771
internal_value=0.000130547 -0.0138226 -0.00607722 0.0137199 -0.00698071 -0.00279318 0.0159003 0.0171503 0.0182984 0.00904253 0.00752993 0.00866753 0.00396678 0.00833363 0.00952679 0.00226533 -0.0139477 0.0142187 -0.018907 -0.0169382 -0.00954431 -0.00857536 -0.00413707 -0.0181972
internal_weight=9878.95 4874.01 1932.44 5004.94 1897.01 1185.81 3699.91 3153.42 2761.09 392.326 1305.02 546.495 296.944 1243.57 1038.19 205.375 711.201 249.55 2941.57 529.482 78.3357 61.456 37.8429 451.146
internal_count=38688 19846 7710 18842 7578 4716 13903 11842 10354 1488 4939 2061 1128 4703 3922 781 2862 933 12136 2172 315 236 145 1857
is_linear=0
shrinkage=0.0178976


Tree=29
num_leaves=15
num_cat=0
split_feature=19 17 24 5 5 10 17 17 24 17 10 24 13 17
split_gain=4825.36 3830.72 1123.46 364.577 288.142 149.351 135.811 104.406 63.9724 19.3064 18.2818 11.5313 2.76716 0.00338484
threshold=4.5000000000000009 97.350000000000009 1.0000000180025095e-35 1.0000000180025095e-35 1.0000000180025095e-35 109.95000000000002 98.050000000000011 96.350000000000009 1.0000000180025095e-35 97.250000000000014 142.95000000000002 1.5000000000000002 14.65 96.15000000000002
decision_type=2 2 2 2 2 2 2 2 2 2 2 2 2 2
left_child=1 7 4 5 6 -4 -3 13 9 -9 -6 -5 -10 -1
right_child=-2 2 3 11 10 -7 -8 8 12 -11 -12 -13 -14 -15
leaf_value=-0.016371799515418915 -0.016492564408635953 0.030201159556004838 0.033821457876534809 -0.0029422767700308218 0.021507432385617645 0.014635034964591139 0.047934644807834263 0.0019748107329228626 -0.0036699248299611538 0.0209518775236936 0.0062947748035134055 -0.01184571811639264 -0.011888713324550059 -0.013889842705864115
leaf_weight=629.03271260857582 2904.4175953119993 171.44702614843845 193.76222530007362 95.064588889479637 110.27059404551983 403.76789413392544 856.1068674325943 135.10038585960865 17.158697590231895 19.390371188521385 35.014562413096428 96.105713382363319 165.27010311186314 56.08809158205986
leaf_count=4303 20275 973 1165 614 672 2525 4748 835 115 118 214 646 1113 372
internal_value=-7.14354e-05 0.0159121 0.030549 0.0140082 0.0416566 0.0208893 0.0449975 -0.012175 -0.00398696 0.00445377 0.017915 -0.00746778 -0.0111596 -0.0161873
internal_weight=5888 2983.58 1961.54 788.7 1172.84 597.53 1027.55 1022.04 336.92 154.491 145.285 191.17 182.429 685.121
internal_count=38688 18413 11557 4950 6607 3690 5721 6856 2181 953 886 1260 1228 4675
is_linear=0
shrinkage=0.0178976


Tree=30
num_leaves=10
num_cat=0
split_feature=18 18 24 5 5 12 12 12 11
split_gain=6683.48 1075.52 532.748 153.555 116.511 86.1962 75.2893 28.9307 26.5196
threshold=8.5000000000000018 10.500000000000002 12.500000000000002 2.5000000000000004 3.5000000000000004 63.45000000000001 65.450000000000017 73.65000000000002 53.95000000000001
decision_type=2 2 2 2 2 2 2 2 2
left_child=-1 2 4 5 8 -4 -6 -5 -2
right_child=1 -3 3 7 6 -7 -8 -9 -10
leaf_value=0.11018619632543598 0.01396892473756094 -0.014856925331990666 0.081414667200759613 0.11155964720580214 0.10040860983352315 0.014017448118295269 0.021461579155221025 0.054816575747441781 -0.010583815644930774
leaf_weight=160.48136906325817 19.30093302577734 1547.1058205030859 10.407180152833464 27.46797389537096 5.3921017833054092 14.909046024084089 13.254787888377903 5.4002146013081065 47.724830377846956
leaf_count=1139 349 34926 120 265 69 248 221 79 961
internal_value=-8.19663e-06 -0.0104989 0.0362184 0.0777777 0.00764048 0.0429822 0.0466064 0.103366 -0.00337638
internal_weight=1851.44 1690.96 143.857 58.1844 85.6727 25.3162 18.6469 32.8682 67.0258
internal_count=38377 37238 2312 712 1600 368 290 344 1310
is_linear=0
shrinkage=0.0178976


Tree=31
num_leaves=11
num_cat=0
split_feature=24 18 19 18 24 19 18 24 15 24
split_gain=13240.9 2298.3 830.634 533.975 267.348 256.377 228.236 112.44 20.2776 12.5141
threshold=5.5000000000000009 8.5000000000000018 4.5000000000000009 14.500000000000002 6.5000000000000009 9.5000000000000018 14.500000000000002 14.500000000000002 25.850000000000005 3.5000000000000004
decision_type=2 2 2 2 2 2 2 2 2 2
left_child=3 -2 -3 -1 6 8 -4 -6 9 -5
right_child=1 2 4 5 7 -7 -8 -9 -10 -11
leaf_value=0.059680450323619481 -0.017107650767795218 -0.016820161832291097 0.058172399045043476 -0.016736103363680407 0.053337876525716664 0.059783103887736409 0.006804347312154917 0.032291114673785731 0.010110785498993221 -0.013730588571716582
leaf_weight=29.448296740651131 197.25258196890354 61.660260379314423 41.805811867117882 4214.4470592439175 1385.6223717331886 13.705546468496321 81.676314294338226 90.86916746199131 8.6825369596481305 540.83606688678265
leaf_count=131 1139 367 182 26263 6021 62 453 422 47 3290
internal_value=3.60632e-05 0.0405942 0.0474506 -0.0156489 0.0499356 -0.0161206 0.0244057 0.0520578 -0.0163464 -0.016397
internal_weight=6666.01 1858.89 1661.63 4807.12 1599.97 4777.67 123.482 1476.49 4763.97 4755.28
internal_count=38377 8584 7445 29793 7078 29662 635 6443 29600 29553
is_linear=0
shrinkage=0.0178976


Tree=32
num_leaves=12
num_cat=0
split_feature=18 24 19 24 24 15 19 24 15 19 11
split_gain=3279.74 6294.12 1680.32 632.096 560.265 367.717 276.703 317.579 136.184 107.678 28.8919
threshold=14.500000000000002 1.5000000000000002 7.5000000000000009 7.5000000000000009 1.0000000180025095e-35 17.950000000000003 9.5000000000000018 2.5000000000000004 17.950000000000003 4.5000000000000009 82.750000000000014
decision_type=2 2 2 2 2 2 2 2 2 2 2
left_child=-1 2 4 6 8 -6 7 -3 -2 -5 -11
right_child=1 3 -4 9 5 -7 -8 -9 -10 10 -12
leaf_value=-0.021066370858124746 -0.016873394863868175 0.017296493600623207 0.033691478390531625 0.033255587369531471 -0.0068148872499916805 0.013089693344486059 -0.022003798821275782 0.02831702471631552 -0.0054989070454333575 -0.018321495743980423 0.0086439736955872763
leaf_weight=1934.3082197904587 2618.4833183288574 1342.7272524535656 290.49576193094254 15.143157660961149 1587.7791150212288 365.15091645717621 41.485353320837021 2258.2563281357288 389.53100001811981 142.49851790070534 13.375610470771788
leaf_count=7105 9398 4493 954 50 5590 1264 144 7455 1377 501 46
internal_value=8.68999e-05 0.00460221 -0.0081055 0.0221019 -0.0105573 -0.00308784 0.0236814 0.0242123 -0.0154035 -0.0114755 -0.0159502
internal_weight=10999.2 9064.93 5251.44 3813.49 4960.94 1952.93 3642.47 3600.98 3008.01 171.017 155.874
internal_count=38377 31272 18583 12689 17629 6854 12092 11948 10775 597 547
is_linear=0
shrinkage=0.0178976


Tree=33
num_leaves=21
num_cat=0
split_feature=24 24 44 12 17 16 40 5 6 24 5 16 16 43 15 5 13 24 13 16
split_gain=5488.73 646.433 237.841 202.375 158.8 196.438 157.415 156.397 128.666 87.9085 78.8177 51.901 44.4614 42.811 35.7399 19.2463 7.46342 6.22928 13.6826 5.73254
threshold=1.5000000000000002 2.5000000000000004 1.0000000180025095e-35 91.850000000000009 98.15000000000002 37.250000000000007 1.0000000180025095e-35 1.0000000180025095e-35 1.5000000000000002 3.5000000000000004 1.0000000180025095e-35 38.050000000000004 37.550000000000004 1.0000000180025095e-35 17.350000000000005 1.0000000180025095e-35 19.750000000000004 4.5000000000000009 14.65 38.550000000000004
decision_type=2 2 2 2 2 2 2 2 2 2 2 2 2 2 2 2 2 2 2 2
left_child=2 6 3 11 7 -6 8 -5 10 12 -2 13 14 -1 -3 -10 -14 18 -11 -13
right_child=1 9 -4 4 5 -7 -8 -9 15 17 -12 19 16 -15 -16 -17 -18 -19 -20 -21
leaf_value=0.0073986576757302299 0.0059602079521843283 -0.00028894954219657988 -0.020184265012697784 0.023071665749722942 0.0077651025583335767 0.019426636489547951 0.038669369621683068 0.010543939517283366 -0.0075602651068488657 -0.0095845511041558196 -0.0067202669917020771 -0.0047633236182801908 -0.0089788095767481778 0.021134357982528745 -0.011971673815701279 -0.01559815725576928 -0.016597808050726068 -0.01915325513927749 -0.018020070578504025 -0.017283456748912841
leaf_weight=1130.569694057107 466.5793219357729 145.06596185266972 67.011679917573929 1240.6904606223106 1195.1854156404734 758.58090171217918 29.433337092399597 434.16647863388062 231.50084987282753 77.386768460273743 235.77234876155853 46.591732770204544 52.214105322957039 77.973404288291931 201.90349209308624 170.17901617288589 390.81948791444302 2370.6267365962267 445.75119745731354 16.585466921329498
leaf_count=4258 1830 580 256 4575 4491 2839 107 1630 931 313 937 180 209 290 824 688 1601 9918 1856 64
internal_value=-3.3441e-05 -0.0136453 0.013166 0.0136252 0.0157801 0.0122996 -0.00181906 0.0198317 -0.00292065 -0.0172819 0.00169346 0.00746839 -0.0119556 0.008298 -0.00711138 -0.0109952 -0.0157241 -0.0187316 -0.0167936 -0.0082509
internal_weight=9784.59 4817.23 4967.36 4900.34 3628.62 1953.77 1133.46 1674.86 1104.03 3683.77 702.352 1271.72 790.003 1208.54 346.969 401.68 443.034 2893.76 523.138 63.1772
internal_count=38377 19794 18583 18327 13535 7330 4493 6205 4386 15301 2767 4792 3214 4548 1404 1619 1810 12087 2169 244
is_linear=0
shrinkage=0.0178976


Tree=34
num_leaves=17
num_cat=0
split_feature=19 24 6 6 16 16 16 14 15 44 5 16 15 15 15 16
split_gain=4603.19 2306.58 877.142 637.908 445.855 263.189 214.932 200.478 124.47 119.625 110.728 98.783 81.8407 32.5136 17.7763 15.143
threshold=4.5000000000000009 1.0000000180025095e-35 1.0000000180025095e-35 1.0000000180025095e-35 37.550000000000004 37.550000000000004 37.150000000000013 97.750000000000014 15.750000000000002 1.0000000180025095e-35 1.0000000180025095e-35 37.250000000000007 17.350000000000005 16.250000000000004 14.350000000000003 37.550000000000004
decision_type=2 2 2 2 2 2 2 2 2 2 2 2 2 2 2 2
left_child=1 2 5 4 7 8 10 -3 -1 -8 -4 12 -5 -7 -6 -13
right_child=-2 3 6 11 14 13 9 -9 -10 -11 -12 15 -14 -15 -16 -17
leaf_value=0.052713512806886041 -0.016450827856245704 0.031274112875673242 0.029366495517853284 0.0050534805491376312 0.0030885205431894392 0.022607639685168972 0.00080925135788644518 0.0033793627987784218 0.038306635520269874 0.06910292775557661 -4.1753071255242136e-05 -0.0092458918600459 -0.012649599986525508 -0.00017212281424314456 -0.01229430586521719 -0.015820628220644055
leaf_weight=414.76248078048229 2842.6577922552824 318.66964495182037 257.62786187231541 213.36682835221291 27.860103562474251 39.84622186422348 268.76283648610115 112.14588512480259 384.15902142226696 7.9868926405906668 48.285795897245407 165.90943613648415 136.71651592850685 38.924711674451828 146.89832310378551 407.54903151094913
leaf_count=2166 20130 1853 1471 1364 191 245 1681 713 2064 41 304 1109 908 243 1020 2874
internal_value=-0.000145398 0.0153575 0.0314403 -3.55827e-06 0.0142617 0.0427422 0.0143839 0.0240386 0.0458214 0.00292138 0.0247131 -0.00936636 -0.00185149 0.0113467 -0.00980685 -0.0139383
internal_weight=5832.13 2989.47 1460.36 1529.12 605.574 877.692 582.663 430.816 798.922 276.75 305.914 923.542 350.083 78.7709 174.758 573.458
internal_count=38377 18247 8215 10032 3777 4718 3497 2566 4230 1722 1775 6255 2272 488 1211 3983
is_linear=0
shrinkage=0.0178976


Tree=35
num_leaves=9
num_cat=0
split_feature=18 18 5 17 19 15 10 15
split_gain=5945.9 1023.15 404.056 199.092 138.117 62.3777 62.1565 45.0444
threshold=10.500000000000002 8.5000000000000018 3.5000000000000004 83.850000000000009 6.5000000000000009 29.350000000000005 107.75000000000001 25.950000000000003
decision_type=2 2 2 2 2 2 2 2
left_child=1 -1 3 7 -4 -5 -6 -3
right_child=-2 2 4 5 6 -7 -8 -9
leaf_value=0.098601801963939362 -0.014847761122167269 0.036223364602091003 -0.012418277108523477 -0.0021187334794732717 0.097017389458157285 0.041815882130060947 0.031744706621713657 0.10474900151503673
leaf_weight=176.2356159389019 1523.3120402693748 6.8185877911746484 4.6719994507729998 75.475874714553356 35.983198568224907 11.462264027446507 6.3974047116935244 7.5230568088591099
leaf_count=1139 34926 93 88 1425 357 186 95 68
internal_value=-2.04866e-05 0.0694676 0.0346004 0.014246 0.0776842 0.00381143 0.0877819 0.0748634
internal_weight=1847.88 324.568 148.332 101.28 47.0526 86.9381 42.3806 14.3416
internal_count=38377 3451 2312 1772 540 1611 452 161
is_linear=0
shrinkage=0.0178976


Tree=36
num_leaves=16
num_cat=0
split_feature=18 18 19 15 17 17 12 18 12 12 12 18 10 15 23
split_gain=11933.8 2436.25 1053.3 656.637 249.97 142.827 114.944 112.22 88.609 56.6 49.8486 55.3069 39.1233 33.0808 0.19349
threshold=14.500000000000002 8.5000000000000018 9.5000000000000018 25.350000000000005 88.250000000000014 82.750000000000014 72.850000000000009 10.500000000000002 84.950000000000017 72.850000000000009 55.050000000000004 10.500000000000002 122.25000000000001 33.750000000000007 0.87950000000000006
decision_type=2 2 2 2 2 2 2 2 2 2 2 2 2 2 2
left_child=1 -1 3 4 12 7 -6 9 14 -3 11 -7 -2 -12 -5
right_child=2 5 -4 8 6 10 -8 -9 -10 -11 13 -13 -14 -15 -16
leaf_value=-0.017053801677198287 0.047153914307096673 -0.006909214707740155 0.057163661849313339 0.03998431420529909 0.0018872807940711134 0.01599101806473794 -0.016042495629023223 0.055094119576504251 0.0044258911824675657 0.036257476757317428 0.052789373535351014 0.05343568754438506 0.0011784270651972004 0.031605979652069814 0.056231530314361955
leaf_weight=194.77732561528683 22.474417537450794 29.55557718873024 66.000038266181946 9.4085717648267728 116.66434590518475 28.460345342755318 4750.4843354821205 24.125473499298096 15.815271452069281 13.825002923607824 1277.1359173208475 24.131452783942223 8.3818567246198636 28.136188864707947 39.542405545711517
leaf_count=1139 106 144 283 46 681 127 29852 102 84 60 5313 100 48 120 172
internal_value=2.07343e-05 0.0422578 -0.0135887 -0.0145364 -0.0152874 0.05037 -0.0156114 0.0245304 0.0418516 0.00696902 0.0516409 0.0336211 0.0350675 0.0523494 0.0536594
internal_weight=6648.92 1620.15 5028.77 4962.77 4898 1425.37 4867.15 67.5061 64.7662 43.3806 1357.86 52.5918 30.8563 1305.27 48.951
internal_count=38377 7105 31272 30989 30687 5966 30533 306 302 204 5660 227 154 5433 218
is_linear=0
shrinkage=0.0178976


Tree=37
num_leaves=12
num_cat=0
split_feature=18 24 19 6 24 5 19 24 15 19 11
split_gain=3175.85 6001.35 1622.41 708.901 599.648 316.91 264.465 299.526 240.475 103.264 28.3515
threshold=14.500000000000002 1.5000000000000002 7.5000000000000009 1.5000000000000002 7.5000000000000009 1.0000000180025095e-35 9.5000000000000018 2.5000000000000004 17.950000000000003 4.5000000000000009 82.750000000000014
decision_type=2 2 2 2 2 2 2 2 2 2 2
left_child=-1 2 3 5 6 -2 7 -3 -5 -6 -11
right_child=1 4 -4 8 9 -7 -8 -9 -10 10 -12
leaf_value=-0.020864992089458179 -0.016248601998595145 0.016853067122373729 0.032982439857058087 -0.001439928221281043 0.032306696999408004 -0.0033813945918488414 -0.021790805995370723 0.027526767985874438 0.020042181069962143 -0.018089767443954893 0.0086255825350295377
leaf_weight=1913.0008255243301 3191.1844874620438 1349.1886621415615 292.10354873538017 770.86704608798027 15.266745895147322 760.7933591902256 41.171446204185486 2273.5716159641743 212.40373852849007 141.35208314657211 13.379325479269026
leaf_count=7105 11535 4493 954 2682 50 2688 144 7455 724 501 46
internal_value=8.56912e-05 0.0045103 -0.00796267 -0.0103904 0.0215169 -0.0137738 0.0230421 0.0235561 0.00320242 -0.011293 -0.0157219
internal_weight=10974.3 9061.28 5227.35 4935.25 3833.93 3951.98 3663.93 3622.76 983.271 169.998 154.731
internal_count=38377 31272 18583 17629 12689 14223 12092 11948 3406 597 547
is_linear=0
shrinkage=0.0178976


Tree=38
num_leaves=21
num_cat=0
split_feature=24 19 24 19 17 5 39 5 24 19 19 13 13 15 17 16 24 13 16 16
split_gain=5295.44 1164.78 421.945 481.696 472.028 214.885 129.142 116.706 88.3632 45.4459 140.323 22.4821 16.3471 16.1813 13.6059 9.43822 6.37735 13.693 8.74567 0.333891
threshold=2.5000000000000004 7.5000000000000009 1.5000000000000002 4.5000000000000009 97.850000000000009 1.0000000180025095e-35 1.0000000180025095e-35 1.0000000180025095e-35 3.5000000000000004 2.5000000000000004 1.0000000180025095e-35 15.250000000000002 40.750000000000007 17.350000000000005 97.950000000000017 37.050000000000004 4.5000000000000009 14.65 37.650000000000013 36.45000000000001
decision_type=2 2 2 2 2 2 2 2 2 2 2 2 2 2 2 2 2 2 2 2
left_child=1 2 3 4 -1 -5 7 -4 9 10 12 13 -2 -11 -12 -13 17 18 -10 -19
right_child=8 -3 6 5 -6 -7 -8 -9 16 11 14 15 -14 -15 -16 -17 -18 19 -20 -21
leaf_value=0.019780454693157253 -0.0032568465776633857 -0.019330121736889971 0.0048746053814685891 0.027828916044326371 0.0058800541662744118 0.011684261561105497 0.037733034002107826 -0.0083641941295430379 -0.0028333718683642034 0.001886025289752011 0.047801565200449925 -0.0098416697512422307 -0.015626904905144765 -0.014884378683743213 0.01933977015227659 -0.016423137825879217 -0.019022094966636094 -0.012384699265010141 -0.015175975537958198 -0.018026674859231869
leaf_weight=1211.9050588011742 61.32461453974247 401.30293098092079 600.08336244523525 978.77310541272163 2214.1349438726902 365.03800651431084 29.782829999923706 330.24680261313915 36.783599957823753 45.55055695772171 13.05158267915249 91.983958229422569 82.119185194373131 29.797079741954803 12.370565190911291 445.78793448209763 2340.0354681462049 14.912799701094626 39.894963324069977 424.77618624269962
leaf_count=4450 247 1666 2356 3499 8347 1333 107 1318 150 180 52 378 337 122 49 1849 9918 63 163 1793
internal_value=-2.50569e-05 0.0101246 0.01219 0.0143689 0.0108009 0.0234536 0.00135717 0.000166897 -0.0171294 -0.0117643 -0.00348414 -0.0140307 -0.0104085 -0.00472304 0.0348125 -0.0153184 -0.0185939 -0.0166257 -0.00938701 -0.0178628
internal_weight=9769.66 6131.27 5729.96 4769.85 3426.04 1343.81 960.113 930.33 3638.39 781.985 168.866 613.12 143.444 75.3476 25.4221 537.772 2856.4 516.368 76.6786 439.689
internal_count=38377 23076 21410 17629 12797 4832 3781 3674 15301 3214 685 2529 584 302 101 2227 12087 2169 313 1856
is_linear=0
shrinkage=0.0178976


Tree=39
num_leaves=16
num_cat=0
split_feature=19 17 16 6 14 14 17 6 24 15 6 24 17 6 16
split_gain=4466.21 3428.8 1439.03 891.765 300.188 260.463 106.391 91.1485 66.3019 65.8717 45.2728 17.3089 8.97655 9.09466 8.88263
threshold=4.5000000000000009 97.350000000000009 37.550000000000004 1.0000000180025095e-35 84.950000000000017 85.350000000000009 96.750000000000014 1.0000000180025095e-35 1.0000000180025095e-35 16.250000000000004 1.0000000180025095e-35 1.0000000180025095e-35 96.250000000000014 1.0000000180025095e-35 36.750000000000007
decision_type=2 2 2 2 2 2 2 2 2 2 2 2 2 2 2
left_child=1 6 3 5 -5 -3 12 9 10 -4 -8 -9 -1 -14 -10
right_child=-2 2 7 4 -6 -7 8 11 14 -11 -12 -13 13 -15 -16
leaf_value=-0.016239832639637169 -0.016409844366552198 0.05135298617021191 0.020393773277825641 0.02874071225334059 0.0037465413672189878 0.031409998138534088 0.020699920530713393 -0.0037286693134274871 0.00086973043659309727 -0.0043836544746802941 -0.0029280496877337105 -0.014997754377366678 -0.0051787112178916126 -0.014551878172085709 -0.012903219983831015
leaf_weight=633.71971066296101 2801.8955242857337 730.69071510434151 62.503665491938591 380.33575843274593 259.60025210678577 301.45145140588284 53.302481397986412 63.819647952914238 16.924430295825005 74.685183569788933 49.293266803026199 152.3522637784481 55.78331957757473 94.416855812072754 91.236784294247627
leaf_count=4413 20130 3711 394 2157 1611 1656 302 412 110 490 308 1065 350 643 625
internal_value=-0.000135646 0.0149609 0.0283235 0.0352571 0.0186213 0.0455519 -0.0122436 -0.00447299 -0.000922208 0.00689543 0.00933152 -0.0117139 -0.0152774 -0.011138 -0.0107003
internal_weight=5822.01 3020.12 2025.44 1672.08 639.936 1032.14 994.677 353.361 210.757 137.189 102.596 216.172 783.92 150.2 108.161
internal_count=38377 18247 11496 9135 3768 5367 6751 2361 1345 884 610 1477 5406 993 735
is_linear=0
shrinkage=0.0178976


Tree=40
num_leaves=10
num_cat=0
split_feature=18 18 17 12 6 12 15 15 16
split_gain=5256.39 857.117 325.915 166.293 88.6629 74.396 55.6962 28.2612 9.06148
threshold=10.500000000000002 8.5000000000000018 85.950000000000017 65.450000000000017 2.5000000000000004 77.550000000000011 33.150000000000013 23.450000000000003 38.45000000000001
decision_type=2 2 2 2 2 2 2 2 2
left_child=1 -1 5 4 -4 7 -5 -3 -7
right_child=-2 2 3 6 -6 8 -8 -9 -10
leaf_value=0.088922897576102181 -0.014838572329472824 0.052514108085965495 0.015171824960921912 -0.0023840533355550058 0.074181292830951165 -0.0058873890451454176 0.073176835191720663 0.097281748476026678 0.0343268214385343
leaf_weight=186.9518146365881 1497.774177197367 8.9895080141723138 15.375264979898928 74.206079445779324 18.470273904502392 2.8917442336678496 2.7634262368082991 23.788708135485649 3.1481766626238823
leaf_count=1110 34887 110 214 1397 228 49 43 195 48
internal_value=-0.000469048 0.0633845 0.0312495 0.0153985 0.0481511 0.0755857 0.000704766 0.0861457 0.0151949
internal_weight=1834.36 336.585 149.633 110.815 33.8455 38.8181 76.9695 32.7782 6.03992
internal_count=38281 3394 2284 1882 442 402 1440 305 97
is_linear=0
shrinkage=0.0178976


Tree=41
num_leaves=15
num_cat=0
split_feature=24 18 18 18 24 11 17 18 18 15 11 24 11 5
split_gain=11849.6 1913.47 539.314 477.766 346.772 113.416 111.108 75.4127 55.926 49.1743 47.1849 28.3329 23.1725 8.40632
threshold=5.5000000000000009 8.5000000000000018 14.500000000000002 14.500000000000002 7.5000000000000009 65.350000000000009 80.550000000000011 10.500000000000002 10.500000000000002 26.450000000000003 83.050000000000011 4.5000000000000009 57.650000000000013 3.5000000000000004
decision_type=2 2 2 2 2 2 2 2 2 2 2 2 2 2
left_child=3 -2 6 -1 5 -4 7 -3 -8 11 -6 13 -13 -5
right_child=1 2 4 9 10 -7 8 -9 -10 -11 -12 12 -14 -15
leaf_value=0.053295436422147402 -0.016990530095061535 -0.004572814003636105 0.02675599346906983 -0.01649543558593464 0.048008838364927475 -0.0039060372757315932 0.043744373388619397 0.052688171818514602 0.05153380872560856 0.02930469776949109 0.010950307053693289 0.0093531911126980491 -0.01136954313762153 -0.0079686252992225513
leaf_weight=31.537463560700417 187.05990572273731 21.657579839229584 55.344985201954842 4411.6964983195066 113.05384239554405 124.40999749302864 516.40718895196915 10.497591704130171 867.36465473473072 7.1209465265274039 13.029690429568289 18.428471297025681 180.29648397862911 41.409462884068489
leaf_count=130 1110 105 288 28262 484 705 2128 44 3460 35 62 107 1099 262
internal_value=-0.000273783 0.037314 0.0432205 -0.015574 0.0215828 0.00554981 0.0478809 0.0144588 0.0486478 -0.016047 0.0442832 -0.0161208 -0.00940004 -0.0164184
internal_weight=6599.31 1908.83 1721.77 4690.49 305.839 179.755 1415.93 32.1552 1383.77 4658.95 126.084 4651.83 198.725 4453.11
internal_count=38281 8386 7276 29895 1539 993 5737 149 5588 29765 546 29730 1206 28524
is_linear=0
shrinkage=0.0178976


Tree=42
num_leaves=21
num_cat=0
split_feature=15 17 15 12 19 19 40 14 19 19 5 40 19 23 12 15 14 23 6 17
split_gain=1108.06 1766.14 1322.39 957.39 927.288 444.384 471.53 418.802 387.571 179.25 173.249 170.117 138.995 55.6853 27.0088 21.5009 5.01241 4.04242 3.64489 0.340197
threshold=24.650000000000002 97.050000000000011 17.950000000000003 76.050000000000011 7.5000000000000009 9.5000000000000018 1.0000000180025095e-35 97.950000000000017 4.5000000000000009 4.5000000000000009 1.0000000180025095e-35 1.0000000180025095e-35 9.5000000000000018 1.1455000000000002 91.750000000000014 25.650000000000002 96.750000000000014 0.63750000000000007 1.0000000180025095e-35 94.65000000000002
decision_type=2 2 2 2 2 2 2 2 2 2 2 2 2 2 2 2 2 2 2 2
left_child=1 3 4 8 7 6 -5 -3 18 -2 -10 12 -4 -6 17 -16 -17 -11 -1 -19
right_child=9 2 11 5 13 -7 -8 -9 10 14 -12 -13 -14 -15 15 16 -18 19 -20 -21
leaf_value=0.019406210541655464 0.032536562000818579 -0.014946269552750312 0.012845495856034724 0.01553663725925304 0.029415095688120368 -0.020693032293155944 -0.021265021680937093 0.0022811138775476868 0.0075342699729412793 -0.010698029162624297 -0.017022525967268116 -0.021272821455459143 -0.020565556427434416 -0.0014214825568624795 0.0078916262856449423 -0.0046890086421320113 -0.019150077945006626 -0.020664646313213676 0.029470702804020858 -0.018824820348001654
leaf_weight=24.829434990882874 21.394124388694763 3166.9698573946953 1207.183609098196 3756.286468744278 186.96524986624718 118.2751644551754 114.3872235417366 526.45647343993187 109.15522614121437 18.961683928966522 567.74215972423553 51.510206431150436 40.68498158454895 20.395740628242493 19.255549758672714 12.826578766107557 27.251916885375977 651.30132010579109 62.922911942005157 214.80357471108437
leaf_count=82 70 11450 4114 12670 611 441 414 1823 377 69 2094 185 151 72 67 46 101 2441 207 796
internal_value=0.000220342 0.00199711 -0.00520996 0.00988218 -0.0104195 0.0133992 0.014445 -0.0124891 -0.00845422 -0.0180771 -0.0130513 0.0104228 0.0117438 0.0263578 -0.0192463 -0.0073203 -0.0147798 -0.0200347 0.0268142 -0.0202261
internal_weight=10919.6 9953.76 5200.17 4753.6 3900.79 3988.95 3870.67 3693.43 764.65 965.795 676.897 1299.38 1247.87 207.361 944.401 59.334 40.0785 885.067 87.7523 866.105
internal_count=38281 34691 18406 16285 13956 13525 13084 13273 2760 3590 2471 4450 4265 683 3520 214 147 3306 289 3237
is_linear=0
shrinkage=0.0178976


Tree=43
num_leaves=21
num_cat=0
split_feature=24 19 24 19 6 16 6 24 16 10 15 5 6 16 19 24 16 15 5 6
split_gain=4998.21 1135.01 405.128 469.54 274.345 218.415 145.367 81.2061 76.6233 68.0569 35.0798 29.2731 19.353 13.9042 9.76694 8.01019 6.626 9.67973 5.78433 3.77722
threshold=2.5000000000000004 7.5000000000000009 1.5000000000000002 4.5000000000000009 1.0000000180025095e-35 37.650000000000013 1.5000000000000002 3.5000000000000004 38.45000000000001 100.25000000000001 17.350000000000005 1.0000000180025095e-35 1.5000000000000002 37.050000000000004 2.5000000000000004 4.5000000000000009 37.45000000000001 17.650000000000002 1.0000000180025095e-35 1.0000000180025095e-35
decision_type=2 2 2 2 2 2 2 2 2 2 2 2 2 2 2 2 2 2 2 2
left_child=1 2 3 4 -1 -5 8 9 -4 10 12 -8 -2 14 -11 16 17 -9 -15 -12
right_child=7 -3 6 5 -6 -7 11 15 -10 13 19 -13 -14 18 -16 -17 -18 -19 -20 -21
leaf_value=0.0054791277244197328 0.011334639024858165 -0.0191924198400216 0.0080146356921466499 0.026588792785125971 0.015606833794709936 0.0098501819064410433 -0.0039044930712096746 -0.0063312064964203421 -0.014988512756540432 0.0011023074812133999 -0.0034708122048331467 -0.014733187664037528 -0.0068416673911176826 -0.013688890324733553 -0.011274941987570942 -0.018901300873728596 -0.017695831730858865 -0.016079835558211363 -0.017745456657284418 -0.015628115826426418
leaf_weight=1806.9556015133858 64.740945398807526 406.4220959097147 582.90145760774612 1059.6932639181614 1634.4954949915409 329.31837683916092 195.95571321249008 51.90150497853756 49.776319921016693 25.772666975855827 12.7174015045166 137.61984869837761 25.529229685664177 293.89308869838715 83.52495451271534 2258.1768056750298 337.90083253383636 105.63342969119549 235.0352980941534 36.000148072838783
leaf_count=6795 255 1710 2273 3745 5992 1195 782 218 197 106 52 558 102 1232 348 9696 1439 451 987 148
internal_value=2.26983e-05 0.00969895 0.0117271 0.0138432 0.0102925 0.0226294 0.00114069 -0.0169744 0.0061853 -0.0118299 -0.000435079 -0.0084047 0.0061206 -0.0142999 -0.00831139 -0.0184219 -0.0162082 -0.012935 -0.0155174 -0.0126401
internal_weight=9733.96 6203.14 5796.72 4830.46 3441.45 1389.01 966.253 3530.83 632.678 777.214 138.988 333.576 90.2702 638.226 109.298 2753.61 495.436 157.535 528.928 48.7175
internal_count=38281 23247 21537 17727 12787 4940 3810 15034 2470 3230 557 1340 357 2673 454 11804 2108 669 2219 200
is_linear=0
shrinkage=0.0178976


Tree=44
num_leaves=16
num_cat=0
split_feature=19 17 6 16 16 14 14 17 16 24 6 14 16 17 6
split_gain=4386.56 3272.05 1293.21 463.233 441.381 338.135 299.627 104.77 68.6335 55.3903 46.6956 16.2884 15.2146 2.92592 3.82789
threshold=4.5000000000000009 97.350000000000009 1.0000000180025095e-35 37.650000000000013 37.550000000000004 85.15000000000002 81.950000000000017 96.550000000000011 37.050000000000004 1.0000000180025095e-35 1.0000000180025095e-35 70.65000000000002 37.550000000000004 96.250000000000014 1.0000000180025095e-35
decision_type=2 2 2 2 2 2 2 2 2 2 2 2 2 2 2
left_child=1 7 3 5 6 -3 -4 13 10 -5 -9 -6 -10 -1 -15
right_child=-2 2 4 9 11 -7 -8 8 12 -11 -12 -13 -14 14 -16
leaf_value=-0.016107919869930761 -0.016368732560310382 0.049574252711982625 0.030310497461978073 0.020510356323945308 0.0024283488069669853 0.027769875828323118 0.0057823665208273315 0.020925505114200535 -0.0042027428086789569 -0.0067973818979139436 -0.0033529949468715783 -0.012701232510453429 -0.014852260488359132 -0.0063845541613469061 -0.014962334009119518
leaf_weight=625.2327860891819 2751.7737540975213 767.52438645064831 328.57472702860832 36.756009861826897 24.92342783510685 329.47919768095016 311.54484137892723 51.653437688946724 92.321749463677406 65.038435310125351 48.512029632925987 195.01658427715302 84.293319925665855 29.964845940470695 53.886219412088394
leaf_count=4418 20065 3785 1816 220 165 1782 1893 297 579 444 311 1352 591 190 373
internal_value=5.97009e-06 0.0148074 0.0276449 0.0396582 0.0108801 0.0430463 0.0183955 -0.0119968 -0.00262666 0.0030575 0.0091504 -0.0109587 -0.00934578 -0.0156417 -0.0120218
internal_weight=5796.5 3044.72 2058.86 1198.8 860.06 1097 640.12 985.864 276.781 101.794 100.165 219.94 176.615 709.084 83.8511
internal_count=38281 18216 11457 6231 5226 5567 3709 6759 1778 664 608 1517 1170 4981 563
is_linear=0
shrinkage=0.0178976


Tree=45
num_leaves=9
num_cat=0
split_feature=18 18 24 19 5 11 6 5
split_gain=4895.57 708.633 309.328 185.394 106.211 43.8151 36.8379 10.4182
threshold=10.500000000000002 8.5000000000000018 11.500000000000002 6.5000000000000009 3.5000000000000004 53.45000000000001 3.5000000000000004 3.5000000000000004
decision_type=2 2 2 2 2 2 2 2
left_child=1 -1 5 -4 -5 6 -3 -7
right_child=-2 2 3 4 -6 7 -8 -9
leaf_value=0.081368427212487299 -0.014829704813442935 0.0067922230697158269 -0.013869102932919418 0.042137418251108144 0.087070807927468269 -0.011022819749634075 0.058154177386966384 0.0088307465050149712
leaf_weight=200.70203359425068 1474.794017367065 14.279764495790007 11.090268056839703 38.315448954701424 33.802716381847858 39.445208556950092 6.3542771190404883 10.016913346946238
leaf_count=1110 34887 243 205 506 273 801 98 158
internal_value=-0.000476199 0.0592412 0.0300659 0.0532965 0.0637297 0.00222621 0.0238796 -0.00683751
internal_weight=1828.8 354.007 153.305 83.2084 72.1182 70.0962 20.634 49.4621
internal_count=38281 3394 2284 984 779 1300 341 959
is_linear=0
shrinkage=0.0178976


Tree=46
num_leaves=11
num_cat=0
split_feature=24 18 19 18 19 18 24 17 15 16
split_gain=11299.2 1777.21 655.871 457.997 218.364 165.121 191.202 100.848 31.7392 13.0371
threshold=5.5000000000000009 8.5000000000000018 4.5000000000000009 14.500000000000002 9.5000000000000018 14.500000000000002 7.5000000000000009 80.550000000000011 26.150000000000002 39.350000000000001
decision_type=2 2 2 2 2 2 2 2 2 2
left_child=3 -2 -3 -1 8 7 -7 -4 9 -5
right_child=1 2 5 4 -6 6 -8 -9 -10 -11
leaf_value=0.050973386438496276 -0.016935525867336307 -0.016724799409393951 0.014035261489148985 -0.016330006982431807 0.052947734573927936 0.014426183979723107 0.045833645781603448 0.046465049985927237 0.018171581289533775 0
leaf_weight=32.442627251148224 184.53180561959743 59.734321400523186 32.461232736706734 4555.5285905450583 14.163098290562628 128.46180558204651 122.25064033269882 1422.0086519420147 8.0393372476100904 16.213340952992439
leaf_count=130 1110 364 149 29562 59 672 503 5588 41 103
internal_value=-0.000282797 0.0358526 0.0413784 -0.0155129 -0.0159891 0.0434215 0.0298244 0.0457503 -0.0162093 -0.016273
internal_weight=6575.84 1949.45 1764.92 4626.39 4593.94 1705.18 250.712 1454.47 4579.78 4571.74
internal_count=38281 8386 7276 29895 29765 6912 1175 5737 29706 29665
is_linear=0
shrinkage=0.0178976


Tree=47
num_leaves=13
num_cat=0
split_feature=18 17 16 19 15 39 43 19 15 16 15 23
split_gain=2981.16 2916.37 1893.98 1039.13 780.886 385.359 283.615 288.788 280.011 219.671 47.9628 0.885361
threshold=14.500000000000002 96.550000000000011 37.650000000000013 7.5000000000000009 18.650000000000002 1.0000000180025095e-35 1.0000000180025095e-35 9.5000000000000018 17.450000000000003 38.250000000000007 25.750000000000004 1.0445000000000002
decision_type=2 2 2 2 2 2 2 2 2 2 2 2
left_child=-1 5 3 4 -3 6 7 -2 9 -4 -10 -5
right_child=1 2 8 11 -6 -7 -8 -9 10 -11 -12 -13
leaf_value=-0.020537699008912457 0.019739790610965868 -0.01469241368032306 0.0012569271000678187 0.031187753449742853 0.0096781334979922501 -0.021051413593997988 -0.021302428211424154 -0.020976534603264013 0.022996141761419866 0.022984782984956164 -0.0078834043749603337 0.02299898068792678
leaf_weight=1841.7277679592371 3242.3671747148037 3460.745662689209 603.00166779756546 177.44001123309135 478.85806927084923 80.870115876197815 56.253446966409683 56.253753572702408 666.86810621619225 197.80832314491272 15.998974233865736 17.586457133293152
leaf_count=6977 10731 12631 2067 573 1638 295 202 205 2197 653 55 57
internal_value=0.000215677 0.00443876 -0.00350376 -0.00972931 -0.0117279 0.0174271 0.0183594 0.0190406 0.0138388 0.00664213 0.0222589 0.0305394
internal_weight=10895.8 9054.05 5618.31 4134.63 3939.6 3435.74 3354.87 3298.62 1483.68 800.81 682.867 195.026
internal_count=38281 31304 19871 14899 14269 11433 11138 10936 4972 2720 2252 630
is_linear=0
shrinkage=0.0178976


Tree=48
num_leaves=20
num_cat=0
split_feature=24 19 24 19 6 6 6 24 16 19 19 5 19 6 16 24 16 15 12
split_gain=4841.97 1095.74 387.374 440.494 258.007 209.461 141.304 80.0997 74.6108 34.9673 122.333 28.7806 18.1841 22.8552 15.0731 7.79598 6.61033 9.55337 0.59517
threshold=2.5000000000000004 7.5000000000000009 1.5000000000000002 4.5000000000000009 1.0000000180025095e-35 1.5000000000000002 1.5000000000000002 3.5000000000000004 38.45000000000001 2.5000000000000004 1.0000000180025095e-35 1.0000000180025095e-35 7.5000000000000009 1.0000000180025095e-35 37.45000000000001 4.5000000000000009 37.45000000000001 17.650000000000002 89.950000000000017
decision_type=2 2 2 2 2 2 2 2 2 2 2 2 2 2 2 2 2 2 2
left_child=1 2 3 4 -1 -5 8 9 -4 10 14 -8 13 -11 -2 16 17 -9 -12
right_child=7 -3 6 5 -6 -7 11 15 -10 12 18 -13 -14 -15 -16 -17 -18 -19 -20
leaf_value=0.0054140402937691264 -0.0039749810181524039 -0.019077150878579564 0.0078626264873186916 0.026136783797614211 0.015214631979195195 0.010392266229547977 -0.0038671635800650948 -0.0062525245447277757 -0.014891287000133242 -0.0048813833954697008 0.025071448031613798 -0.014628470191147927 -0.018953902947801429 -0.014230250114459411 -0.015844944007418166 -0.018770711793141038 -0.017591192128394936 -0.015963867016582593 0.03810897134937527
leaf_weight=1809.5884794592857 62.563898891210556 401.69060249626637 584.95676502585411 1031.6448318362236 1645.9003199338913 370.06660908460617 195.67790552973747 51.720495864748955 49.496630728244781 116.40714104473591 12.273724690079691 136.72340822219849 161.41332074999809 326.63538318872452 81.042363077402115 2226.670268625021 334.65591526031494 104.64515072107315 11.899489656090735
leaf_count=6795 256 1710 2273 3605 5992 1335 782 218 197 483 48 558 692 1366 338 9696 1439 451 47
internal_value=3.14399e-05 0.00949164 0.0114645 0.0135238 0.0100854 0.0219894 0.00111157 -0.0168421 0.00606805 -0.01172 -0.00442282 -0.00832625 -0.0137305 -0.0117953 -0.0107456 -0.018293 -0.0160978 -0.0128188 0.0323633
internal_weight=9715.67 6225.75 5824.05 4857.2 3455.49 1401.71 966.855 3489.93 634.453 772.235 167.779 332.401 604.456 443.043 143.606 2717.69 491.022 156.366 24.1732
internal_count=38281 23247 21537 17727 12787 4940 3810 15034 2470 3230 689 1340 2541 1849 594 11804 2108 669 95
is_linear=0
shrinkage=0.0178976


Tree=49
num_leaves=17
num_cat=0
split_feature=19 6 16 24 14 16 14 15 44 16 24 6 6 14 16 16
split_gain=4254.56 1906.66 855.504 522.73 499.398 184.961 146.879 144.871 117.029 105.008 100.457 78.45 77.8835 26.8565 17.9269 17.5606
threshold=4.5000000000000009 1.0000000180025095e-35 37.550000000000004 1.0000000180025095e-35 85.350000000000009 37.050000000000004 95.750000000000014 18.150000000000002 1.0000000180025095e-35 37.150000000000013 1.0000000180025095e-35 1.5000000000000002 1.5000000000000002 71.550000000000011 37.550000000000004 37.650000000000013
decision_type=2 2 2 2 2 2 2 2 2 2 2 2 2 2 2 2
left_child=1 2 4 5 7 12 -6 -1 -7 11 13 -5 -3 -4 -11 -12
right_child=-2 3 10 9 6 8 -8 -9 -10 14 15 -13 -14 -15 -16 -17
leaf_value=0.043771409568248501 -0.01632820904122281 0.028993385991498106 0.030950731188401311 0.0077534372295242487 0.025608412097607898 0.0015518463016200234 0.0034848122311147344 0.017961856694171757 0.062440135141532398 -0.0086381106789676036 0.0033591314056327362 -0.011122126378105215 0.0074724230608910237 0.0078053175853164151 -0.015280024278307765 -0.012066428444158757
